<?xml version="1.0"?>
<opencv_storage>
<cascade>
  <stageType>BOOST</stageType>
  <featureType>HAAR</featureType>
  <height>40</height>
  <width>50</width>
  <stageParams>
    <boostType>GAB</boostType>
    <minHitRate>9.9900001287460327e-01</minHitRate>
    <maxFalseAlarm>5.0000000000000000e-01</maxFalseAlarm>
    <weightTrimRate>9.4999999999999996e-01</weightTrimRate>
    <maxDepth>1</maxDepth>
    <maxWeakCount>100</maxWeakCount></stageParams>
  <featureParams>
    <maxCatCount>0</maxCatCount>
    <featSize>1</featSize>
    <mode>ALL</mode></featureParams>
  <stageNum>17</stageNum>
  <stages>
    <!-- stage 0 -->
    <_>
      <maxWeakCount>3</maxWeakCount>
      <stageThreshold>-1.3202044963836670e+00</stageThreshold>
      <weakClassifiers>
        <_>
          <internalNodes>
            0 -1 61 -6.5626874566078186e-03</internalNodes>
          <leafValues>
            -9.7984588146209717e-01 4.9733436107635498e-01</leafValues></_>
        <_>
          <internalNodes>
            0 -1 3 1.0223068296909332e-02</internalNodes>
          <leafValues>
            -6.8610179424285889e-01 7.5968575477600098e-01</leafValues></_>
        <_>
          <internalNodes>
            0 -1 106 -1.0271124541759491e-02</internalNodes>
          <leafValues>
            -9.5088541507720947e-01 3.4574320912361145e-01</leafValues></_></weakClassifiers></_>
    <!-- stage 1 -->
    <_>
      <maxWeakCount>10</maxWeakCount>
      <stageThreshold>-1.6444920301437378e+00</stageThreshold>
      <weakClassifiers>
        <_>
          <internalNodes>
            0 -1 9 -4.4585712021216750e-04</internalNodes>
          <leafValues>
            9.0250331163406372e-01 -7.5189650058746338e-01</leafValues></_>
        <_>
          <internalNodes>
            0 -1 20 -4.4687878107652068e-04</internalNodes>
          <leafValues>
            8.2677590847015381e-01 -3.3538585901260376e-01</leafValues></_>
        <_>
          <internalNodes>
            0 -1 111 -3.0870513990521431e-02</internalNodes>
          <leafValues>
            -9.4388276338577271e-01 2.4329957365989685e-01</leafValues></_>
        <_>
          <internalNodes>
            0 -1 141 -6.9102365523576736e-03</internalNodes>
          <leafValues>
            5.5977642536163330e-01 -3.6678087711334229e-01</leafValues></_>
        <_>
          <internalNodes>
            0 -1 25 6.0847415588796139e-03</internalNodes>
          <leafValues>
            -2.5325596332550049e-01 6.7496997117996216e-01</leafValues></_>
        <_>
          <internalNodes>
            0 -1 28 -2.6423744857311249e-03</internalNodes>
          <leafValues>
            7.5296372175216675e-01 -1.8544659018516541e-01</leafValues></_>
        <_>
          <internalNodes>
            0 -1 67 -7.1462672203779221e-03</internalNodes>
          <leafValues>
            6.1070191860198975e-01 -2.0474582910537720e-01</leafValues></_>
        <_>
          <internalNodes>
            0 -1 68 5.6065181270241737e-03</internalNodes>
          <leafValues>
            -2.0217244327068329e-01 7.3980057239532471e-01</leafValues></_>
        <_>
          <internalNodes>
            0 -1 134 3.0275974422693253e-02</internalNodes>
          <leafValues>
            -1.5331962704658508e-01 7.7713578939437866e-01</leafValues></_>
        <_>
          <internalNodes>
            0 -1 69 5.5076526477932930e-03</internalNodes>
          <leafValues>
            -2.3591426014900208e-01 5.6521207094192505e-01</leafValues></_></weakClassifiers></_>
    <!-- stage 2 -->
    <_>
      <maxWeakCount>7</maxWeakCount>
      <stageThreshold>-1.4501694440841675e+00</stageThreshold>
      <weakClassifiers>
        <_>
          <internalNodes>
            0 -1 18 3.3954210812225938e-04</internalNodes>
          <leafValues>
            -7.4032104015350342e-01 6.4399093389511108e-01</leafValues></_>
        <_>
          <internalNodes>
            0 -1 93 -3.7286360748112202e-04</internalNodes>
          <leafValues>
            5.4433953762054443e-01 -5.5251419544219971e-01</leafValues></_>
        <_>
          <internalNodes>
            0 -1 113 -4.0980251505970955e-03</internalNodes>
          <leafValues>
            -9.2219251394271851e-01 2.5345033407211304e-01</leafValues></_>
        <_>
          <internalNodes>
            0 -1 138 -1.4635849744081497e-02</internalNodes>
          <leafValues>
            6.1000442504882812e-01 -4.0808373689651489e-01</leafValues></_>
        <_>
          <internalNodes>
            0 -1 60 8.1379711627960205e-03</internalNodes>
          <leafValues>
            -1.4971727132797241e-01 8.9298498630523682e-01</leafValues></_>
        <_>
          <internalNodes>
            0 -1 70 -3.3514467068016529e-03</internalNodes>
          <leafValues>
            -9.3382775783538818e-01 1.4062027633190155e-01</leafValues></_>
        <_>
          <internalNodes>
            0 -1 105 -7.0669213309884071e-03</internalNodes>
          <leafValues>
            -9.0250831842422485e-01 1.3933689892292023e-01</leafValues></_></weakClassifiers></_>
    <!-- stage 3 -->
    <_>
      <maxWeakCount>3</maxWeakCount>
      <stageThreshold>-1.1036602258682251e+00</stageThreshold>
      <weakClassifiers>
        <_>
          <internalNodes>
            0 -1 0 1.2457996606826782e-02</internalNodes>
          <leafValues>
            -7.8689342737197876e-01 5.7242757081985474e-01</leafValues></_>
        <_>
          <internalNodes>
            0 -1 71 2.8982399962842464e-03</internalNodes>
          <leafValues>
            -5.5212104320526123e-01 6.0973531007766724e-01</leafValues></_>
        <_>
          <internalNodes>
            0 -1 115 6.7907171323895454e-03</internalNodes>
          <leafValues>
            2.8119838237762451e-01 -9.2650210857391357e-01</leafValues></_></weakClassifiers></_>
    <!-- stage 4 -->
    <_>
      <maxWeakCount>8</maxWeakCount>
      <stageThreshold>-1.7383832931518555e+00</stageThreshold>
      <weakClassifiers>
        <_>
          <internalNodes>
            0 -1 39 5.7911826297640800e-04</internalNodes>
          <leafValues>
            -6.8841201066970825e-01 9.0149253606796265e-01</leafValues></_>
        <_>
          <internalNodes>
            0 -1 152 -1.5512327663600445e-03</internalNodes>
          <leafValues>
            7.2587126493453979e-01 -4.5611029863357544e-01</leafValues></_>
        <_>
          <internalNodes>
            0 -1 99 -9.0541671961545944e-03</internalNodes>
          <leafValues>
            -7.3007369041442871e-01 3.4455764293670654e-01</leafValues></_>
        <_>
          <internalNodes>
            0 -1 123 -2.4914159439504147e-03</internalNodes>
          <leafValues>
            6.1608004570007324e-01 -3.3984506130218506e-01</leafValues></_>
        <_>
          <internalNodes>
            0 -1 94 -4.4324547052383423e-02</internalNodes>
          <leafValues>
            -8.6466532945632935e-01 2.4734531342983246e-01</leafValues></_>
        <_>
          <internalNodes>
            0 -1 53 -2.9239159077405930e-02</internalNodes>
          <leafValues>
            6.9657611846923828e-01 -2.3244391381740570e-01</leafValues></_>
        <_>
          <internalNodes>
            0 -1 22 -1.2451995280571282e-04</internalNodes>
          <leafValues>
            -5.1845282316207886e-01 2.9752606153488159e-01</leafValues></_>
        <_>
          <internalNodes>
            0 -1 121 -6.3501968979835510e-03</internalNodes>
          <leafValues>
            -6.8953067064285278e-01 2.0100966095924377e-01</leafValues></_></weakClassifiers></_>
    <!-- stage 5 -->
    <_>
      <maxWeakCount>9</maxWeakCount>
      <stageThreshold>-1.6267522573471069e+00</stageThreshold>
      <weakClassifiers>
        <_>
          <internalNodes>
            0 -1 6 6.2694039661437273e-04</internalNodes>
          <leafValues>
            -7.3588263988494873e-01 8.7217044830322266e-01</leafValues></_>
        <_>
          <internalNodes>
            0 -1 148 -1.2601790949702263e-03</internalNodes>
          <leafValues>
            5.7405883073806763e-01 -4.6409490704536438e-01</leafValues></_>
        <_>
          <internalNodes>
            0 -1 13 2.9421100392937660e-02</internalNodes>
          <leafValues>
            -2.1948073804378510e-01 7.3443150520324707e-01</leafValues></_>
        <_>
          <internalNodes>
            0 -1 97 -8.2468695472925901e-04</internalNodes>
          <leafValues>
            5.6960868835449219e-01 -2.5859773159027100e-01</leafValues></_>
        <_>
          <internalNodes>
            0 -1 132 -1.8139649182558060e-02</internalNodes>
          <leafValues>
            7.0388036966323853e-01 -2.2536681592464447e-01</leafValues></_>
        <_>
          <internalNodes>
            0 -1 86 1.8802267732098699e-03</internalNodes>
          <leafValues>
            -2.2036376595497131e-01 6.0575246810913086e-01</leafValues></_>
        <_>
          <internalNodes>
            0 -1 129 3.2132696360349655e-03</internalNodes>
          <leafValues>
            -1.7647175490856171e-01 7.8558135032653809e-01</leafValues></_>
        <_>
          <internalNodes>
            0 -1 55 3.7742268759757280e-03</internalNodes>
          <leafValues>
            2.1064472198486328e-01 -8.2262998819351196e-01</leafValues></_>
        <_>
          <internalNodes>
            0 -1 145 1.0814629058586434e-04</internalNodes>
          <leafValues>
            -3.1504586338996887e-01 4.6286132931709290e-01</leafValues></_></weakClassifiers></_>
    <!-- stage 6 -->
    <_>
      <maxWeakCount>3</maxWeakCount>
      <stageThreshold>-1.1602460145950317e+00</stageThreshold>
      <weakClassifiers>
        <_>
          <internalNodes>
            0 -1 10 -5.1018956582993269e-04</internalNodes>
          <leafValues>
            9.1361254453659058e-01 -7.5939178466796875e-01</leafValues></_>
        <_>
          <internalNodes>
            0 -1 95 1.4791526831686497e-02</internalNodes>
          <leafValues>
            5.0676566362380981e-01 -9.7009968757629395e-01</leafValues></_>
        <_>
          <internalNodes>
            0 -1 151 -1.8507471540942788e-03</internalNodes>
          <leafValues>
            5.6924539804458618e-01 -5.5397689342498779e-01</leafValues></_></weakClassifiers></_>
    <!-- stage 7 -->
    <_>
      <maxWeakCount>7</maxWeakCount>
      <stageThreshold>-1.6584105491638184e+00</stageThreshold>
      <weakClassifiers>
        <_>
          <internalNodes>
            0 -1 6 6.0216558631509542e-04</internalNodes>
          <leafValues>
            -7.3766118288040161e-01 8.7749665975570679e-01</leafValues></_>
        <_>
          <internalNodes>
            0 -1 63 1.2925155460834503e-02</internalNodes>
          <leafValues>
            -4.3267014622688293e-01 6.5327847003936768e-01</leafValues></_>
        <_>
          <internalNodes>
            0 -1 133 2.8700911207124591e-04</internalNodes>
          <leafValues>
            -4.2454066872596741e-01 5.9627199172973633e-01</leafValues></_>
        <_>
          <internalNodes>
            0 -1 49 -1.7296649515628815e-01</internalNodes>
          <leafValues>
            -9.2182648181915283e-01 1.8662741780281067e-01</leafValues></_>
        <_>
          <internalNodes>
            0 -1 131 -7.1921676862984896e-04</internalNodes>
          <leafValues>
            7.2766298055648804e-01 -2.6686620712280273e-01</leafValues></_>
        <_>
          <internalNodes>
            0 -1 42 -1.5460757538676262e-02</internalNodes>
          <leafValues>
            -5.1675307750701904e-01 3.6014947295188904e-01</leafValues></_>
        <_>
          <internalNodes>
            0 -1 78 -6.1344304122030735e-03</internalNodes>
          <leafValues>
            6.3469231128692627e-01 -2.5580802559852600e-01</leafValues></_></weakClassifiers></_>
    <!-- stage 8 -->
    <_>
      <maxWeakCount>8</maxWeakCount>
      <stageThreshold>-1.9687511920928955e+00</stageThreshold>
      <weakClassifiers>
        <_>
          <internalNodes>
            0 -1 6 4.5673607382923365e-04</internalNodes>
          <leafValues>
            -7.4335885047912598e-01 8.3568680286407471e-01</leafValues></_>
        <_>
          <internalNodes>
            0 -1 149 -1.5377635136246681e-03</internalNodes>
          <leafValues>
            7.8779590129852295e-01 -4.3504765629768372e-01</leafValues></_>
        <_>
          <internalNodes>
            0 -1 137 7.0771074388176203e-04</internalNodes>
          <leafValues>
            -2.7758947014808655e-01 8.8304597139358521e-01</leafValues></_>
        <_>
          <internalNodes>
            0 -1 84 1.1009465903043747e-02</internalNodes>
          <leafValues>
            3.4060683846473694e-01 -8.7752115726470947e-01</leafValues></_>
        <_>
          <internalNodes>
            0 -1 127 1.9489656551741064e-04</internalNodes>
          <leafValues>
            -4.0737274289131165e-01 7.2429925203323364e-01</leafValues></_>
        <_>
          <internalNodes>
            0 -1 139 2.8517027385532856e-04</internalNodes>
          <leafValues>
            -2.8019598126411438e-01 7.7892649173736572e-01</leafValues></_>
        <_>
          <internalNodes>
            0 -1 122 -4.2613250116119161e-05</internalNodes>
          <leafValues>
            6.4383369684219360e-01 -3.5988849401473999e-01</leafValues></_>
        <_>
          <internalNodes>
            0 -1 96 -7.3688253760337830e-03</internalNodes>
          <leafValues>
            -8.8949239253997803e-01 2.8055113554000854e-01</leafValues></_></weakClassifiers></_>
    <!-- stage 9 -->
    <_>
      <maxWeakCount>14</maxWeakCount>
      <stageThreshold>-1.9293154478073120e+00</stageThreshold>
      <weakClassifiers>
        <_>
          <internalNodes>
            0 -1 11 -1.0180816752836108e-03</internalNodes>
          <leafValues>
            7.4873095750808716e-01 -7.1880650520324707e-01</leafValues></_>
        <_>
          <internalNodes>
            0 -1 62 3.2816618680953979e-02</internalNodes>
          <leafValues>
            -3.0223006010055542e-01 8.2784402370452881e-01</leafValues></_>
        <_>
          <internalNodes>
            0 -1 112 -1.2950027361512184e-02</internalNodes>
          <leafValues>
            -8.6583518981933594e-01 1.4581418037414551e-01</leafValues></_>
        <_>
          <internalNodes>
            0 -1 24 -1.9607035210356116e-04</internalNodes>
          <leafValues>
            -5.7574027776718140e-01 2.8187137842178345e-01</leafValues></_>
        <_>
          <internalNodes>
            0 -1 104 -6.0003437101840973e-03</internalNodes>
          <leafValues>
            -8.5875558853149414e-01 8.7807849049568176e-02</leafValues></_>
        <_>
          <internalNodes>
            0 -1 92 6.7094911355525255e-04</internalNodes>
          <leafValues>
            -2.7277600765228271e-01 4.8370474576950073e-01</leafValues></_>
        <_>
          <internalNodes>
            0 -1 130 -7.6724765822291374e-03</internalNodes>
          <leafValues>
            6.4877516031265259e-01 -1.8463350832462311e-01</leafValues></_>
        <_>
          <internalNodes>
            0 -1 135 -1.4424840919673443e-03</internalNodes>
          <leafValues>
            5.4810601472854614e-01 -2.1411372721195221e-01</leafValues></_>
        <_>
          <internalNodes>
            0 -1 102 1.1825803667306900e-03</internalNodes>
          <leafValues>
            1.7205576598644257e-01 -7.3399347066879272e-01</leafValues></_>
        <_>
          <internalNodes>
            0 -1 18 7.7727902680635452e-04</internalNodes>
          <leafValues>
            -1.9760863482952118e-01 7.4023795127868652e-01</leafValues></_>
        <_>
          <internalNodes>
            0 -1 81 -1.4133841614238918e-04</internalNodes>
          <leafValues>
            3.5804346203804016e-01 -3.6966297030448914e-01</leafValues></_>
        <_>
          <internalNodes>
            0 -1 87 -1.4868378639221191e-02</internalNodes>
          <leafValues>
            -7.8268998861312866e-01 1.5625336766242981e-01</leafValues></_>
        <_>
          <internalNodes>
            0 -1 64 1.6317967325448990e-02</internalNodes>
          <leafValues>
            -1.6472958028316498e-01 8.6924308538436890e-01</leafValues></_>
        <_>
          <internalNodes>
            0 -1 75 4.0953501593321562e-04</internalNodes>
          <leafValues>
            -1.6824358701705933e-01 5.9800648689270020e-01</leafValues></_></weakClassifiers></_>
    <!-- stage 10 -->
    <_>
      <maxWeakCount>13</maxWeakCount>
      <stageThreshold>-2.0697109699249268e+00</stageThreshold>
      <weakClassifiers>
        <_>
          <internalNodes>
            0 -1 5 -2.0680346060544252e-03</internalNodes>
          <leafValues>
            7.5505048036575317e-01 -7.2373187541961670e-01</leafValues></_>
        <_>
          <internalNodes>
            0 -1 150 8.5699534974992275e-04</internalNodes>
          <leafValues>
            -3.8786903023719788e-01 6.0546725988388062e-01</leafValues></_>
        <_>
          <internalNodes>
            0 -1 43 1.7680440578260459e-05</internalNodes>
          <leafValues>
            2.8047278523445129e-01 -5.4407590627670288e-01</leafValues></_>
        <_>
          <internalNodes>
            0 -1 143 1.1866479180753231e-02</internalNodes>
          <leafValues>
            -2.2058233618736267e-01 6.6849404573440552e-01</leafValues></_>
        <_>
          <internalNodes>
            0 -1 142 3.9284033700823784e-03</internalNodes>
          <leafValues>
            -2.1866896748542786e-01 6.0754615068435669e-01</leafValues></_>
        <_>
          <internalNodes>
            0 -1 4 1.7706624930724502e-04</internalNodes>
          <leafValues>
            2.4150659143924713e-01 -5.6426334381103516e-01</leafValues></_>
        <_>
          <internalNodes>
            0 -1 116 1.5785373398102820e-04</internalNodes>
          <leafValues>
            -2.3727945983409882e-01 6.3325673341751099e-01</leafValues></_>
        <_>
          <internalNodes>
            0 -1 109 -5.3086625412106514e-03</internalNodes>
          <leafValues>
            -8.2391583919525146e-01 1.5425258874893188e-01</leafValues></_>
        <_>
          <internalNodes>
            0 -1 32 -2.3444536054739729e-05</internalNodes>
          <leafValues>
            -5.0177580118179321e-01 2.2105447947978973e-01</leafValues></_>
        <_>
          <internalNodes>
            0 -1 108 2.6394561864435673e-03</internalNodes>
          <leafValues>
            1.4505419135093689e-01 -8.0949395895004272e-01</leafValues></_>
        <_>
          <internalNodes>
            0 -1 30 1.1305740190437064e-04</internalNodes>
          <leafValues>
            -3.0107533931732178e-01 4.5559424161911011e-01</leafValues></_>
        <_>
          <internalNodes>
            0 -1 147 -1.3561648665927351e-04</internalNodes>
          <leafValues>
            -6.0509407520294189e-01 2.3544159531593323e-01</leafValues></_>
        <_>
          <internalNodes>
            0 -1 118 7.4343598680570722e-04</internalNodes>
          <leafValues>
            -2.1987193822860718e-01 6.4026218652725220e-01</leafValues></_></weakClassifiers></_>
    <!-- stage 11 -->
    <_>
      <maxWeakCount>17</maxWeakCount>
      <stageThreshold>-1.9277909994125366e+00</stageThreshold>
      <weakClassifiers>
        <_>
          <internalNodes>
            0 -1 7 1.2396080419421196e-03</internalNodes>
          <leafValues>
            -7.0247936248779297e-01 6.4476883411407471e-01</leafValues></_>
        <_>
          <internalNodes>
            0 -1 21 -4.9246312119066715e-04</internalNodes>
          <leafValues>
            6.5415138006210327e-01 -3.6357104778289795e-01</leafValues></_>
        <_>
          <internalNodes>
            0 -1 44 -7.0805799623485655e-05</internalNodes>
          <leafValues>
            -4.5940789580345154e-01 3.0366542935371399e-01</leafValues></_>
        <_>
          <internalNodes>
            0 -1 103 -5.3527858108282089e-03</internalNodes>
          <leafValues>
            -8.6792302131652832e-01 1.0377214103937149e-01</leafValues></_>
        <_>
          <internalNodes>
            0 -1 12 2.0631087943911552e-02</internalNodes>
          <leafValues>
            -2.1978314220905304e-01 5.6153869628906250e-01</leafValues></_>
        <_>
          <internalNodes>
            0 -1 36 3.2015654142014682e-05</internalNodes>
          <leafValues>
            1.9399635493755341e-01 -6.9112998247146606e-01</leafValues></_>
        <_>
          <internalNodes>
            0 -1 90 3.2399289775639772e-03</internalNodes>
          <leafValues>
            -1.9746959209442139e-01 6.1247509717941284e-01</leafValues></_>
        <_>
          <internalNodes>
            0 -1 66 -7.9728579148650169e-03</internalNodes>
          <leafValues>
            -8.5937231779098511e-01 1.5451414883136749e-01</leafValues></_>
        <_>
          <internalNodes>
            0 -1 2 3.0469819903373718e-03</internalNodes>
          <leafValues>
            -2.6355895400047302e-01 5.2475899457931519e-01</leafValues></_>
        <_>
          <internalNodes>
            0 -1 17 -4.6072974801063538e-03</internalNodes>
          <leafValues>
            6.1184018850326538e-01 -1.8545210361480713e-01</leafValues></_>
        <_>
          <internalNodes>
            0 -1 31 1.8310920568183064e-03</internalNodes>
          <leafValues>
            -2.2418864071369171e-01 5.4249048233032227e-01</leafValues></_>
        <_>
          <internalNodes>
            0 -1 119 -8.3897663280367851e-03</internalNodes>
          <leafValues>
            -7.8574091196060181e-01 1.4386962354183197e-01</leafValues></_>
        <_>
          <internalNodes>
            0 -1 48 1.7510892939753830e-04</internalNodes>
          <leafValues>
            1.9460634887218475e-01 -5.6794172525405884e-01</leafValues></_>
        <_>
          <internalNodes>
            0 -1 146 8.2451933994889259e-03</internalNodes>
          <leafValues>
            -1.6862474381923676e-01 7.6361095905303955e-01</leafValues></_>
        <_>
          <internalNodes>
            0 -1 91 -1.5086284838616848e-03</internalNodes>
          <leafValues>
            7.0384532213211060e-01 -1.4188759028911591e-01</leafValues></_>
        <_>
          <internalNodes>
            0 -1 144 9.5917072030715644e-05</internalNodes>
          <leafValues>
            2.0380181074142456e-01 -6.0286796092987061e-01</leafValues></_>
        <_>
          <internalNodes>
            0 -1 117 -1.9879662431776524e-03</internalNodes>
          <leafValues>
            -8.6695539951324463e-01 1.2199356406927109e-01</leafValues></_></weakClassifiers></_>
    <!-- stage 12 -->
    <_>
      <maxWeakCount>15</maxWeakCount>
      <stageThreshold>-1.9390648603439331e+00</stageThreshold>
      <weakClassifiers>
        <_>
          <internalNodes>
            0 -1 40 1.0838070884346962e-03</internalNodes>
          <leafValues>
            -6.3425129652023315e-01 7.0118343830108643e-01</leafValues></_>
        <_>
          <internalNodes>
            0 -1 153 -1.1513305362313986e-03</internalNodes>
          <leafValues>
            6.7678618431091309e-01 -3.8720589876174927e-01</leafValues></_>
        <_>
          <internalNodes>
            0 -1 38 -3.1870474686002126e-06</internalNodes>
          <leafValues>
            -5.8785909414291382e-01 2.9478523135185242e-01</leafValues></_>
        <_>
          <internalNodes>
            0 -1 51 1.2009307742118835e-02</internalNodes>
          <leafValues>
            -2.5819820165634155e-01 7.2168141603469849e-01</leafValues></_>
        <_>
          <internalNodes>
            0 -1 33 1.7597183614270762e-05</internalNodes>
          <leafValues>
            2.7945446968078613e-01 -4.7909271717071533e-01</leafValues></_>
        <_>
          <internalNodes>
            0 -1 37 -8.1565987784415483e-05</internalNodes>
          <leafValues>
            -5.5360454320907593e-01 2.5443696975708008e-01</leafValues></_>
        <_>
          <internalNodes>
            0 -1 72 -1.8345268908888102e-03</internalNodes>
          <leafValues>
            6.7842525243759155e-01 -2.0922240614891052e-01</leafValues></_>
        <_>
          <internalNodes>
            0 -1 74 8.4886495023965836e-03</internalNodes>
          <leafValues>
            -1.6112865507602692e-01 7.3781526088714600e-01</leafValues></_>
        <_>
          <internalNodes>
            0 -1 98 -1.1021789163351059e-02</internalNodes>
          <leafValues>
            -7.2924083471298218e-01 2.2185212373733521e-01</leafValues></_>
        <_>
          <internalNodes>
            0 -1 80 -2.9801772325299680e-04</internalNodes>
          <leafValues>
            3.3979219198226929e-01 -4.6707525849342346e-01</leafValues></_>
        <_>
          <internalNodes>
            0 -1 76 -2.7955859899520874e-02</internalNodes>
          <leafValues>
            -7.8372919559478760e-01 1.6444081068038940e-01</leafValues></_>
        <_>
          <internalNodes>
            0 -1 154 -7.8776647569611669e-04</internalNodes>
          <leafValues>
            5.3676360845565796e-01 -2.9497182369232178e-01</leafValues></_>
        <_>
          <internalNodes>
            0 -1 136 2.8864499181509018e-03</internalNodes>
          <leafValues>
            -2.7719360589981079e-01 5.2394855022430420e-01</leafValues></_>
        <_>
          <internalNodes>
            0 -1 15 -7.3572655674070120e-04</internalNodes>
          <leafValues>
            3.9915579557418823e-01 -3.5483247041702271e-01</leafValues></_>
        <_>
          <internalNodes>
            0 -1 79 4.1416279971599579e-02</internalNodes>
          <leafValues>
            1.6292676329612732e-01 -9.2208194732666016e-01</leafValues></_></weakClassifiers></_>
    <!-- stage 13 -->
    <_>
      <maxWeakCount>15</maxWeakCount>
      <stageThreshold>-1.8286596536636353e+00</stageThreshold>
      <weakClassifiers>
        <_>
          <internalNodes>
            0 -1 8 2.5447001680731773e-03</internalNodes>
          <leafValues>
            -6.4817321300506592e-01 5.5810981988906860e-01</leafValues></_>
        <_>
          <internalNodes>
            0 -1 18 5.5100495228543878e-04</internalNodes>
          <leafValues>
            -3.8316735625267029e-01 6.2131506204605103e-01</leafValues></_>
        <_>
          <internalNodes>
            0 -1 54 -1.7140809446573257e-02</internalNodes>
          <leafValues>
            8.1916111707687378e-01 -2.0310647785663605e-01</leafValues></_>
        <_>
          <internalNodes>
            0 -1 100 -2.9352296143770218e-02</internalNodes>
          <leafValues>
            -9.6008378267288208e-01 2.0028001070022583e-01</leafValues></_>
        <_>
          <internalNodes>
            0 -1 140 -1.6007702797651291e-03</internalNodes>
          <leafValues>
            6.4227378368377686e-01 -2.4392586946487427e-01</leafValues></_>
        <_>
          <internalNodes>
            0 -1 88 -5.7824822142720222e-03</internalNodes>
          <leafValues>
            -9.2472386360168457e-01 1.6448222100734711e-01</leafValues></_>
        <_>
          <internalNodes>
            0 -1 110 -1.5546308131888509e-03</internalNodes>
          <leafValues>
            6.9819200038909912e-01 -2.1415121853351593e-01</leafValues></_>
        <_>
          <internalNodes>
            0 -1 23 7.5250412919558585e-05</internalNodes>
          <leafValues>
            2.3623375594615936e-01 -5.9676522016525269e-01</leafValues></_>
        <_>
          <internalNodes>
            0 -1 65 -9.7239445894956589e-03</internalNodes>
          <leafValues>
            6.2493854761123657e-01 -2.1569739282131195e-01</leafValues></_>
        <_>
          <internalNodes>
            0 -1 45 1.7767251847544685e-05</internalNodes>
          <leafValues>
            2.7002611756324768e-01 -5.3075283765792847e-01</leafValues></_>
        <_>
          <internalNodes>
            0 -1 120 3.4417374990880489e-04</internalNodes>
          <leafValues>
            -3.1266492605209351e-01 4.7647926211357117e-01</leafValues></_>
        <_>
          <internalNodes>
            0 -1 46 2.3255960550159216e-03</internalNodes>
          <leafValues>
            -2.6109191775321960e-01 5.5390852689743042e-01</leafValues></_>
        <_>
          <internalNodes>
            0 -1 101 2.3914794437587261e-03</internalNodes>
          <leafValues>
            -2.0822192728519440e-01 6.3042873144149780e-01</leafValues></_>
        <_>
          <internalNodes>
            0 -1 82 -7.6352343894541264e-03</internalNodes>
          <leafValues>
            5.9586828947067261e-01 -2.2222180664539337e-01</leafValues></_>
        <_>
          <internalNodes>
            0 -1 1 3.9615715650143102e-05</internalNodes>
          <leafValues>
            2.3073895275592804e-01 -6.3545781373977661e-01</leafValues></_></weakClassifiers></_>
    <!-- stage 14 -->
    <_>
      <maxWeakCount>13</maxWeakCount>
      <stageThreshold>-1.8904346227645874e+00</stageThreshold>
      <weakClassifiers>
        <_>
          <internalNodes>
            0 -1 52 3.2869046553969383e-03</internalNodes>
          <leafValues>
            -6.5474611520767212e-01 6.5714287757873535e-01</leafValues></_>
        <_>
          <internalNodes>
            0 -1 114 -1.6216860385611653e-03</internalNodes>
          <leafValues>
            7.0712667703628540e-01 -4.3338537216186523e-01</leafValues></_>
        <_>
          <internalNodes>
            0 -1 19 -3.9955830288818106e-05</internalNodes>
          <leafValues>
            -5.9107643365859985e-01 4.0342289209365845e-01</leafValues></_>
        <_>
          <internalNodes>
            0 -1 34 -4.7881845384836197e-03</internalNodes>
          <leafValues>
            5.5494564771652222e-01 -3.6949181556701660e-01</leafValues></_>
        <_>
          <internalNodes>
            0 -1 56 -5.0488035194575787e-03</internalNodes>
          <leafValues>
            -8.5841929912567139e-01 2.6336231827735901e-01</leafValues></_>
        <_>
          <internalNodes>
            0 -1 83 1.1912244372069836e-03</internalNodes>
          <leafValues>
            -2.8951001167297363e-01 7.4076604843139648e-01</leafValues></_>
        <_>
          <internalNodes>
            0 -1 58 -1.2282230891287327e-03</internalNodes>
          <leafValues>
            8.0365407466888428e-01 -2.2656309604644775e-01</leafValues></_>
        <_>
          <internalNodes>
            0 -1 16 7.6856522355228662e-04</internalNodes>
          <leafValues>
            -1.9577477872371674e-01 8.5131371021270752e-01</leafValues></_>
        <_>
          <internalNodes>
            0 -1 126 -4.7924555838108063e-03</internalNodes>
          <leafValues>
            -8.6976253986358643e-01 2.5487405061721802e-01</leafValues></_>
        <_>
          <internalNodes>
            0 -1 57 4.2353142052888870e-03</internalNodes>
          <leafValues>
            -2.4986205995082855e-01 8.4447962045669556e-01</leafValues></_>
        <_>
          <internalNodes>
            0 -1 128 9.8054278641939163e-03</internalNodes>
          <leafValues>
            -1.8364703655242920e-01 8.9342707395553589e-01</leafValues></_>
        <_>
          <internalNodes>
            0 -1 125 -6.4844044391065836e-04</internalNodes>
          <leafValues>
            6.9585514068603516e-01 -2.5987717509269714e-01</leafValues></_>
        <_>
          <internalNodes>
            0 -1 50 4.1634598746895790e-03</internalNodes>
          <leafValues>
            2.4810783565044403e-01 -8.6300432682037354e-01</leafValues></_></weakClassifiers></_>
    <!-- stage 15 -->
    <_>
      <maxWeakCount>9</maxWeakCount>
      <stageThreshold>-2.2828047275543213e+00</stageThreshold>
      <weakClassifiers>
        <_>
          <internalNodes>
            0 -1 27 -1.3410612009465694e-03</internalNodes>
          <leafValues>
            5.9432935714721680e-01 -7.4171864986419678e-01</leafValues></_>
        <_>
          <internalNodes>
            0 -1 26 5.1129893399775028e-03</internalNodes>
          <leafValues>
            -4.8354515433311462e-01 8.5614675283432007e-01</leafValues></_>
        <_>
          <internalNodes>
            0 -1 77 9.0222433209419250e-03</internalNodes>
          <leafValues>
            -3.8466572761535645e-01 7.1373003721237183e-01</leafValues></_>
        <_>
          <internalNodes>
            0 -1 47 -5.7283078785985708e-04</internalNodes>
          <leafValues>
            9.0585166215896606e-01 -3.3871248364448547e-01</leafValues></_>
        <_>
          <internalNodes>
            0 -1 35 -8.7230349890887737e-05</internalNodes>
          <leafValues>
            -8.0129665136337280e-01 3.9304307103157043e-01</leafValues></_>
        <_>
          <internalNodes>
            0 -1 73 -4.5710970880463719e-04</internalNodes>
          <leafValues>
            6.8075078725814819e-01 -4.2561376094818115e-01</leafValues></_>
        <_>
          <internalNodes>
            0 -1 107 -1.4014649204909801e-02</internalNodes>
          <leafValues>
            -5.3426229953765869e-01 5.0293213129043579e-01</leafValues></_>
        <_>
          <internalNodes>
            0 -1 124 1.0700730490498245e-04</internalNodes>
          <leafValues>
            7.4699491262435913e-01 -4.1970184445381165e-01</leafValues></_>
        <_>
          <internalNodes>
            0 -1 59 2.1870724594919011e-05</internalNodes>
          <leafValues>
            4.8504784703254700e-01 -5.9219199419021606e-01</leafValues></_></weakClassifiers></_>
    <!-- stage 16 -->
    <_>
      <maxWeakCount>5</maxWeakCount>
      <stageThreshold>-8.9384442567825317e-01</stageThreshold>
      <weakClassifiers>
        <_>
          <internalNodes>
            0 -1 89 1.6191977192647755e-04</internalNodes>
          <leafValues>
            1. -7.4825173616409302e-01</leafValues></_>
        <_>
          <internalNodes>
            0 -1 14 -6.4719766378402710e-02</internalNodes>
          <leafValues>
            -7.2016733884811401e-01 8.1812340021133423e-01</leafValues></_>
        <_>
          <internalNodes>
            0 -1 85 -1.0812087915837765e-02</internalNodes>
          <leafValues>
            -8.2238948345184326e-01 6.8366378545761108e-01</leafValues></_>
        <_>
          <internalNodes>
            0 -1 29 -1.8045408651232719e-02</internalNodes>
          <leafValues>
            -8.9847332239151001e-01 6.5607661008834839e-01</leafValues></_>
        <_>
          <internalNodes>
            0 -1 41 1.0054828453576192e-04</internalNodes>
          <leafValues>
            -7.6516568660736084e-01 1.</leafValues></_></weakClassifiers></_></stages>
  <features>
    <_>
      <rects>
        <_>
          0 0 30 22 -1.</_>
        <_>
          0 0 15 11 2.</_>
        <_>
          15 11 15 11 2.</_></rects>
      <tilted>0</tilted></_>
    <_>
      <rects>
        <_>
          0 1 1 3 -1.</_>
        <_>
          0 2 1 1 3.</_></rects>
      <tilted>0</tilted></_>
    <_>
      <rects>
        <_>
          0 1 6 38 -1.</_>
        <_>
          2 1 2 38 3.</_></rects>
      <tilted>0</tilted></_>
    <_>
      <rects>
        <_>
          0 1 10 26 -1.</_>
        <_>
          0 1 5 13 2.</_>
        <_>
          5 14 5 13 2.</_></rects>
      <tilted>0</tilted></_>
    <_>
      <rects>
        <_>
          0 2 2 7 -1.</_>
        <_>
          1 2 1 7 2.</_></rects>
      <tilted>0</tilted></_>
    <_>
      <rects>
        <_>
          0 8 1 6 -1.</_>
        <_>
          0 11 1 3 2.</_></rects>
      <tilted>0</tilted></_>
    <_>
      <rects>
        <_>
          0 9 1 3 -1.</_>
        <_>
          0 10 1 1 3.</_></rects>
      <tilted>0</tilted></_>
    <_>
      <rects>
        <_>
          0 9 2 3 -1.</_>
        <_>
          0 10 2 1 3.</_></rects>
      <tilted>0</tilted></_>
    <_>
      <rects>
        <_>
          0 9 4 3 -1.</_>
        <_>
          0 10 4 1 3.</_></rects>
      <tilted>0</tilted></_>
    <_>
      <rects>
        <_>
          0 10 1 2 -1.</_>
        <_>
          0 11 1 1 2.</_></rects>
      <tilted>0</tilted></_>
    <_>
      <rects>
        <_>
          0 10 1 4 -1.</_>
        <_>
          0 11 1 2 2.</_></rects>
      <tilted>0</tilted></_>
    <_>
      <rects>
        <_>
          0 10 2 2 -1.</_>
        <_>
          0 11 2 1 2.</_></rects>
      <tilted>0</tilted></_>
    <_>
      <rects>
        <_>
          0 10 8 29 -1.</_>
        <_>
          4 10 4 29 2.</_></rects>
      <tilted>0</tilted></_>
    <_>
      <rects>
        <_>
          0 11 16 10 -1.</_>
        <_>
          8 11 8 10 2.</_></rects>
      <tilted>0</tilted></_>
    <_>
      <rects>
        <_>
          0 15 48 24 -1.</_>
        <_>
          16 23 16 8 9.</_></rects>
      <tilted>0</tilted></_>
    <_>
      <rects>
        <_>
          0 17 8 12 -1.</_>
        <_>
          0 20 8 6 2.</_></rects>
      <tilted>0</tilted></_>
    <_>
      <rects>
        <_>
          0 18 3 11 -1.</_>
        <_>
          1 18 1 11 3.</_></rects>
      <tilted>0</tilted></_>
    <_>
      <rects>
        <_>
          0 21 8 11 -1.</_>
        <_>
          2 21 4 11 2.</_></rects>
      <tilted>0</tilted></_>
    <_>
      <rects>
        <_>
          0 27 2 3 -1.</_>
        <_>
          0 28 2 1 3.</_></rects>
      <tilted>0</tilted></_>
    <_>
      <rects>
        <_>
          0 27 3 2 -1.</_>
        <_>
          0 28 3 1 2.</_></rects>
      <tilted>0</tilted></_>
    <_>
      <rects>
        <_>
          0 28 2 2 -1.</_>
        <_>
          0 29 2 1 2.</_></rects>
      <tilted>0</tilted></_>
    <_>
      <rects>
        <_>
          0 28 2 3 -1.</_>
        <_>
          0 29 2 1 3.</_></rects>
      <tilted>0</tilted></_>
    <_>
      <rects>
        <_>
          0 30 1 6 -1.</_>
        <_>
          0 33 1 3 2.</_></rects>
      <tilted>0</tilted></_>
    <_>
      <rects>
        <_>
          0 35 3 3 -1.</_>
        <_>
          0 36 3 1 3.</_></rects>
      <tilted>0</tilted></_>
    <_>
      <rects>
        <_>
          1 0 4 1 -1.</_>
        <_>
          1 0 2 1 2.</_></rects>
      <tilted>1</tilted></_>
    <_>
      <rects>
        <_>
          1 2 8 27 -1.</_>
        <_>
          3 2 4 27 2.</_></rects>
      <tilted>0</tilted></_>
    <_>
      <rects>
        <_>
          1 2 6 26 -1.</_>
        <_>
          1 2 3 13 2.</_>
        <_>
          4 15 3 13 2.</_></rects>
      <tilted>0</tilted></_>
    <_>
      <rects>
        <_>
          1 6 2 12 -1.</_>
        <_>
          1 10 2 4 3.</_></rects>
      <tilted>0</tilted></_>
    <_>
      <rects>
        <_>
          1 11 8 8 -1.</_>
        <_>
          3 11 4 8 2.</_></rects>
      <tilted>0</tilted></_>
    <_>
      <rects>
        <_>
          1 11 13 8 -1.</_>
        <_>
          1 15 13 4 2.</_></rects>
      <tilted>0</tilted></_>
    <_>
      <rects>
        <_>
          1 12 5 3 -1.</_>
        <_>
          1 13 5 1 3.</_></rects>
      <tilted>0</tilted></_>
    <_>
      <rects>
        <_>
          1 19 6 18 -1.</_>
        <_>
          3 19 2 18 3.</_></rects>
      <tilted>0</tilted></_>
    <_>
      <rects>
        <_>
          1 25 1 2 -1.</_>
        <_>
          1 26 1 1 2.</_></rects>
      <tilted>0</tilted></_>
    <_>
      <rects>
        <_>
          1 35 3 4 -1.</_>
        <_>
          1 37 3 2 2.</_></rects>
      <tilted>0</tilted></_>
    <_>
      <rects>
        <_>
          1 35 49 4 -1.</_>
        <_>
          1 37 49 2 2.</_></rects>
      <tilted>0</tilted></_>
    <_>
      <rects>
        <_>
          1 36 2 1 -1.</_>
        <_>
          1 36 1 1 2.</_></rects>
      <tilted>1</tilted></_>
    <_>
      <rects>
        <_>
          1 37 2 1 -1.</_>
        <_>
          2 37 1 1 2.</_></rects>
      <tilted>0</tilted></_>
    <_>
      <rects>
        <_>
          1 37 3 2 -1.</_>
        <_>
          1 38 3 1 2.</_></rects>
      <tilted>0</tilted></_>
    <_>
      <rects>
        <_>
          2 0 2 2 -1.</_>
        <_>
          2 0 1 1 2.</_>
        <_>
          3 1 1 1 2.</_></rects>
      <tilted>0</tilted></_>
    <_>
      <rects>
        <_>
          2 9 1 3 -1.</_>
        <_>
          2 10 1 1 3.</_></rects>
      <tilted>0</tilted></_>
    <_>
      <rects>
        <_>
          2 10 2 1 -1.</_>
        <_>
          2 10 1 1 2.</_></rects>
      <tilted>1</tilted></_>
    <_>
      <rects>
        <_>
          2 39 14 1 -1.</_>
        <_>
          9 39 7 1 2.</_></rects>
      <tilted>0</tilted></_>
    <_>
      <rects>
        <_>
          3 12 40 18 -1.</_>
        <_>
          3 12 20 9 2.</_>
        <_>
          23 21 20 9 2.</_></rects>
      <tilted>0</tilted></_>
    <_>
      <rects>
        <_>
          3 36 1 4 -1.</_>
        <_>
          3 37 1 2 2.</_></rects>
      <tilted>0</tilted></_>
    <_>
      <rects>
        <_>
          3 36 3 3 -1.</_>
        <_>
          4 37 1 1 9.</_></rects>
      <tilted>0</tilted></_>
    <_>
      <rects>
        <_>
          3 38 2 1 -1.</_>
        <_>
          4 38 1 1 2.</_></rects>
      <tilted>0</tilted></_>
    <_>
      <rects>
        <_>
          4 16 6 16 -1.</_>
        <_>
          4 16 3 8 2.</_>
        <_>
          7 24 3 8 2.</_></rects>
      <tilted>0</tilted></_>
    <_>
      <rects>
        <_>
          4 20 10 3 -1.</_>
        <_>
          3 21 10 1 3.</_></rects>
      <tilted>1</tilted></_>
    <_>
      <rects>
        <_>
          4 36 2 2 -1.</_>
        <_>
          4 36 2 1 2.</_></rects>
      <tilted>1</tilted></_>
    <_>
      <rects>
        <_>
          5 2 44 29 -1.</_>
        <_>
          27 2 22 29 2.</_></rects>
      <tilted>0</tilted></_>
    <_>
      <rects>
        <_>
          5 17 40 4 -1.</_>
        <_>
          5 19 40 2 2.</_></rects>
      <tilted>0</tilted></_>
    <_>
      <rects>
        <_>
          5 21 15 4 -1.</_>
        <_>
          5 21 15 2 2.</_></rects>
      <tilted>1</tilted></_>
    <_>
      <rects>
        <_>
          6 26 3 4 -1.</_>
        <_>
          6 26 3 2 2.</_></rects>
      <tilted>1</tilted></_>
    <_>
      <rects>
        <_>
          6 32 34 8 -1.</_>
        <_>
          6 36 34 4 2.</_></rects>
      <tilted>0</tilted></_>
    <_>
      <rects>
        <_>
          6 34 29 6 -1.</_>
        <_>
          6 37 29 3 2.</_></rects>
      <tilted>0</tilted></_>
    <_>
      <rects>
        <_>
          7 15 13 6 -1.</_>
        <_>
          7 18 13 3 2.</_></rects>
      <tilted>0</tilted></_>
    <_>
      <rects>
        <_>
          7 18 14 6 -1.</_>
        <_>
          7 18 7 3 2.</_>
        <_>
          14 21 7 3 2.</_></rects>
      <tilted>0</tilted></_>
    <_>
      <rects>
        <_>
          7 24 7 6 -1.</_>
        <_>
          5 26 7 2 3.</_></rects>
      <tilted>1</tilted></_>
    <_>
      <rects>
        <_>
          7 24 9 3 -1.</_>
        <_>
          6 25 9 1 3.</_></rects>
      <tilted>1</tilted></_>
    <_>
      <rects>
        <_>
          8 0 2 1 -1.</_>
        <_>
          9 0 1 1 2.</_></rects>
      <tilted>0</tilted></_>
    <_>
      <rects>
        <_>
          8 7 2 8 -1.</_>
        <_>
          8 7 2 4 2.</_></rects>
      <tilted>1</tilted></_>
    <_>
      <rects>
        <_>
          8 16 32 1 -1.</_>
        <_>
          24 16 16 1 2.</_></rects>
      <tilted>0</tilted></_>
    <_>
      <rects>
        <_>
          8 23 8 8 -1.</_>
        <_>
          8 23 8 4 2.</_></rects>
      <tilted>1</tilted></_>
    <_>
      <rects>
        <_>
          8 24 7 8 -1.</_>
        <_>
          8 24 7 4 2.</_></rects>
      <tilted>1</tilted></_>
    <_>
      <rects>
        <_>
          8 25 7 8 -1.</_>
        <_>
          6 27 7 4 2.</_></rects>
      <tilted>1</tilted></_>
    <_>
      <rects>
        <_>
          8 28 20 12 -1.</_>
        <_>
          8 28 10 6 2.</_>
        <_>
          18 34 10 6 2.</_></rects>
      <tilted>0</tilted></_>
    <_>
      <rects>
        <_>
          9 15 35 8 -1.</_>
        <_>
          9 17 35 4 2.</_></rects>
      <tilted>0</tilted></_>
    <_>
      <rects>
        <_>
          9 24 6 9 -1.</_>
        <_>
          6 27 6 3 3.</_></rects>
      <tilted>1</tilted></_>
    <_>
      <rects>
        <_>
          9 26 6 6 -1.</_>
        <_>
          7 28 6 2 3.</_></rects>
      <tilted>1</tilted></_>
    <_>
      <rects>
        <_>
          10 5 8 4 -1.</_>
        <_>
          10 5 4 4 2.</_></rects>
      <tilted>1</tilted></_>
    <_>
      <rects>
        <_>
          10 18 21 1 -1.</_>
        <_>
          17 18 7 1 3.</_></rects>
      <tilted>0</tilted></_>
    <_>
      <rects>
        <_>
          10 23 1 10 -1.</_>
        <_>
          10 23 1 5 2.</_></rects>
      <tilted>1</tilted></_>
    <_>
      <rects>
        <_>
          10 27 10 3 -1.</_>
        <_>
          9 28 10 1 3.</_></rects>
      <tilted>1</tilted></_>
    <_>
      <rects>
        <_>
          11 24 5 9 -1.</_>
        <_>
          11 27 5 3 3.</_></rects>
      <tilted>0</tilted></_>
    <_>
      <rects>
        <_>
          11 26 8 6 -1.</_>
        <_>
          9 28 8 2 3.</_></rects>
      <tilted>1</tilted></_>
    <_>
      <rects>
        <_>
          11 32 8 2 -1.</_>
        <_>
          11 32 4 1 2.</_>
        <_>
          15 33 4 1 2.</_></rects>
      <tilted>0</tilted></_>
    <_>
      <rects>
        <_>
          12 9 20 23 -1.</_>
        <_>
          17 9 10 23 2.</_></rects>
      <tilted>0</tilted></_>
    <_>
      <rects>
        <_>
          13 20 5 12 -1.</_>
        <_>
          13 20 5 6 2.</_></rects>
      <tilted>1</tilted></_>
    <_>
      <rects>
        <_>
          13 23 7 8 -1.</_>
        <_>
          11 25 7 4 2.</_></rects>
      <tilted>1</tilted></_>
    <_>
      <rects>
        <_>
          14 12 24 15 -1.</_>
        <_>
          22 12 8 15 3.</_></rects>
      <tilted>0</tilted></_>
    <_>
      <rects>
        <_>
          14 18 12 5 -1.</_>
        <_>
          17 18 6 5 2.</_></rects>
      <tilted>0</tilted></_>
    <_>
      <rects>
        <_>
          14 20 12 4 -1.</_>
        <_>
          17 20 6 4 2.</_></rects>
      <tilted>0</tilted></_>
    <_>
      <rects>
        <_>
          15 0 17 12 -1.</_>
        <_>
          15 3 17 6 2.</_></rects>
      <tilted>0</tilted></_>
    <_>
      <rects>
        <_>
          15 5 4 12 -1.</_>
        <_>
          16 6 2 12 2.</_></rects>
      <tilted>1</tilted></_>
    <_>
      <rects>
        <_>
          15 10 16 11 -1.</_>
        <_>
          19 10 8 11 2.</_></rects>
      <tilted>0</tilted></_>
    <_>
      <rects>
        <_>
          15 16 12 5 -1.</_>
        <_>
          19 20 4 5 3.</_></rects>
      <tilted>1</tilted></_>
    <_>
      <rects>
        <_>
          17 0 2 14 -1.</_>
        <_>
          17 0 1 14 2.</_></rects>
      <tilted>1</tilted></_>
    <_>
      <rects>
        <_>
          17 14 15 5 -1.</_>
        <_>
          22 19 5 5 3.</_></rects>
      <tilted>1</tilted></_>
    <_>
      <rects>
        <_>
          17 17 15 3 -1.</_>
        <_>
          22 17 5 3 3.</_></rects>
      <tilted>0</tilted></_>
    <_>
      <rects>
        <_>
          17 25 3 8 -1.</_>
        <_>
          18 25 1 8 3.</_></rects>
      <tilted>0</tilted></_>
    <_>
      <rects>
        <_>
          18 1 6 4 -1.</_>
        <_>
          20 3 2 4 3.</_></rects>
      <tilted>1</tilted></_>
    <_>
      <rects>
        <_>
          18 1 9 2 -1.</_>
        <_>
          18 2 9 1 2.</_></rects>
      <tilted>0</tilted></_>
    <_>
      <rects>
        <_>
          18 3 4 6 -1.</_>
        <_>
          18 5 4 2 3.</_></rects>
      <tilted>0</tilted></_>
    <_>
      <rects>
        <_>
          19 0 16 1 -1.</_>
        <_>
          23 0 8 1 2.</_></rects>
      <tilted>0</tilted></_>
    <_>
      <rects>
        <_>
          19 6 21 26 -1.</_>
        <_>
          26 6 7 26 3.</_></rects>
      <tilted>0</tilted></_>
    <_>
      <rects>
        <_>
          21 11 15 4 -1.</_>
        <_>
          26 16 5 4 3.</_></rects>
      <tilted>1</tilted></_>
    <_>
      <rects>
        <_>
          21 18 12 2 -1.</_>
        <_>
          21 18 6 2 2.</_></rects>
      <tilted>1</tilted></_>
    <_>
      <rects>
        <_>
          22 3 20 2 -1.</_>
        <_>
          22 3 10 1 2.</_>
        <_>
          32 4 10 1 2.</_></rects>
      <tilted>0</tilted></_>
    <_>
      <rects>
        <_>
          22 14 21 6 -1.</_>
        <_>
          29 14 7 6 3.</_></rects>
      <tilted>0</tilted></_>
    <_>
      <rects>
        <_>
          23 10 21 6 -1.</_>
        <_>
          23 13 21 3 2.</_></rects>
      <tilted>0</tilted></_>
    <_>
      <rects>
        <_>
          23 11 18 9 -1.</_>
        <_>
          29 14 6 3 9.</_></rects>
      <tilted>0</tilted></_>
    <_>
      <rects>
        <_>
          24 0 6 9 -1.</_>
        <_>
          24 3 6 3 3.</_></rects>
      <tilted>0</tilted></_>
    <_>
      <rects>
        <_>
          24 11 2 16 -1.</_>
        <_>
          24 19 2 8 2.</_></rects>
      <tilted>0</tilted></_>
    <_>
      <rects>
        <_>
          24 13 20 6 -1.</_>
        <_>
          24 15 20 2 3.</_></rects>
      <tilted>0</tilted></_>
    <_>
      <rects>
        <_>
          25 12 12 3 -1.</_>
        <_>
          29 16 4 3 3.</_></rects>
      <tilted>1</tilted></_>
    <_>
      <rects>
        <_>
          26 7 12 8 -1.</_>
        <_>
          24 9 12 4 2.</_></rects>
      <tilted>1</tilted></_>
    <_>
      <rects>
        <_>
          26 10 6 15 -1.</_>
        <_>
          26 15 6 5 3.</_></rects>
      <tilted>0</tilted></_>
    <_>
      <rects>
        <_>
          27 12 12 14 -1.</_>
        <_>
          27 19 12 7 2.</_></rects>
      <tilted>0</tilted></_>
    <_>
      <rects>
        <_>
          27 15 14 4 -1.</_>
        <_>
          27 17 14 2 2.</_></rects>
      <tilted>0</tilted></_>
    <_>
      <rects>
        <_>
          28 13 7 12 -1.</_>
        <_>
          28 17 7 4 3.</_></rects>
      <tilted>0</tilted></_>
    <_>
      <rects>
        <_>
          29 3 8 4 -1.</_>
        <_>
          29 3 4 2 2.</_>
        <_>
          33 5 4 2 2.</_></rects>
      <tilted>0</tilted></_>
    <_>
      <rects>
        <_>
          29 5 14 14 -1.</_>
        <_>
          29 5 14 7 2.</_></rects>
      <tilted>1</tilted></_>
    <_>
      <rects>
        <_>
          29 10 14 12 -1.</_>
        <_>
          29 14 14 4 3.</_></rects>
      <tilted>0</tilted></_>
    <_>
      <rects>
        <_>
          29 11 9 2 -1.</_>
        <_>
          32 14 3 2 3.</_></rects>
      <tilted>1</tilted></_>
    <_>
      <rects>
        <_>
          30 1 14 4 -1.</_>
        <_>
          30 1 7 2 2.</_>
        <_>
          37 3 7 2 2.</_></rects>
      <tilted>0</tilted></_>
    <_>
      <rects>
        <_>
          30 13 9 9 -1.</_>
        <_>
          30 16 9 3 3.</_></rects>
      <tilted>0</tilted></_>
    <_>
      <rects>
        <_>
          31 36 1 3 -1.</_>
        <_>
          31 37 1 1 3.</_></rects>
      <tilted>0</tilted></_>
    <_>
      <rects>
        <_>
          32 14 4 7 -1.</_>
        <_>
          34 14 2 7 2.</_></rects>
      <tilted>0</tilted></_>
    <_>
      <rects>
        <_>
          33 4 8 2 -1.</_>
        <_>
          33 4 4 1 2.</_>
        <_>
          37 5 4 1 2.</_></rects>
      <tilted>0</tilted></_>
    <_>
      <rects>
        <_>
          33 16 9 9 -1.</_>
        <_>
          30 19 9 3 3.</_></rects>
      <tilted>1</tilted></_>
    <_>
      <rects>
        <_>
          33 31 8 1 -1.</_>
        <_>
          35 33 4 1 2.</_></rects>
      <tilted>1</tilted></_>
    <_>
      <rects>
        <_>
          34 6 6 18 -1.</_>
        <_>
          34 6 3 18 2.</_></rects>
      <tilted>1</tilted></_>
    <_>
      <rects>
        <_>
          35 2 1 12 -1.</_>
        <_>
          35 5 1 6 2.</_></rects>
      <tilted>0</tilted></_>
    <_>
      <rects>
        <_>
          35 3 9 3 -1.</_>
        <_>
          38 4 3 1 9.</_></rects>
      <tilted>0</tilted></_>
    <_>
      <rects>
        <_>
          36 16 6 13 -1.</_>
        <_>
          38 18 2 13 3.</_></rects>
      <tilted>1</tilted></_>
    <_>
      <rects>
        <_>
          36 28 6 6 -1.</_>
        <_>
          38 30 2 2 9.</_></rects>
      <tilted>0</tilted></_>
    <_>
      <rects>
        <_>
          38 9 6 5 -1.</_>
        <_>
          40 11 2 5 3.</_></rects>
      <tilted>1</tilted></_>
    <_>
      <rects>
        <_>
          38 23 12 1 -1.</_>
        <_>
          41 23 6 1 2.</_></rects>
      <tilted>0</tilted></_>
    <_>
      <rects>
        <_>
          38 23 10 16 -1.</_>
        <_>
          38 23 5 8 2.</_>
        <_>
          43 31 5 8 2.</_></rects>
      <tilted>0</tilted></_>
    <_>
      <rects>
        <_>
          38 30 9 1 -1.</_>
        <_>
          41 33 3 1 3.</_></rects>
      <tilted>1</tilted></_>
    <_>
      <rects>
        <_>
          38 30 12 4 -1.</_>
        <_>
          44 30 6 4 2.</_></rects>
      <tilted>0</tilted></_>
    <_>
      <rects>
        <_>
          39 1 4 6 -1.</_>
        <_>
          39 3 4 2 3.</_></rects>
      <tilted>0</tilted></_>
    <_>
      <rects>
        <_>
          39 24 4 16 -1.</_>
        <_>
          39 32 4 8 2.</_></rects>
      <tilted>0</tilted></_>
    <_>
      <rects>
        <_>
          40 3 8 6 -1.</_>
        <_>
          44 3 4 6 2.</_></rects>
      <tilted>0</tilted></_>
    <_>
      <rects>
        <_>
          40 23 10 6 -1.</_>
        <_>
          40 23 5 6 2.</_></rects>
      <tilted>1</tilted></_>
    <_>
      <rects>
        <_>
          40 26 6 3 -1.</_>
        <_>
          42 28 2 3 3.</_></rects>
      <tilted>1</tilted></_>
    <_>
      <rects>
        <_>
          41 22 9 5 -1.</_>
        <_>
          44 22 3 5 3.</_></rects>
      <tilted>0</tilted></_>
    <_>
      <rects>
        <_>
          42 0 1 4 -1.</_>
        <_>
          42 0 1 2 2.</_></rects>
      <tilted>1</tilted></_>
    <_>
      <rects>
        <_>
          42 13 8 21 -1.</_>
        <_>
          46 13 4 21 2.</_></rects>
      <tilted>0</tilted></_>
    <_>
      <rects>
        <_>
          42 25 8 1 -1.</_>
        <_>
          46 25 4 1 2.</_></rects>
      <tilted>0</tilted></_>
    <_>
      <rects>
        <_>
          43 2 3 4 -1.</_>
        <_>
          42 3 3 2 2.</_></rects>
      <tilted>1</tilted></_>
    <_>
      <rects>
        <_>
          44 14 6 22 -1.</_>
        <_>
          47 14 3 22 2.</_></rects>
      <tilted>0</tilted></_>
    <_>
      <rects>
        <_>
          44 19 6 12 -1.</_>
        <_>
          46 19 2 12 3.</_></rects>
      <tilted>0</tilted></_>
    <_>
      <rects>
        <_>
          44 22 6 6 -1.</_>
        <_>
          44 22 3 6 2.</_></rects>
      <tilted>1</tilted></_>
    <_>
      <rects>
        <_>
          45 0 1 4 -1.</_>
        <_>
          45 2 1 2 2.</_></rects>
      <tilted>0</tilted></_>
    <_>
      <rects>
        <_>
          45 13 4 1 -1.</_>
        <_>
          47 13 2 1 2.</_></rects>
      <tilted>0</tilted></_>
    <_>
      <rects>
        <_>
          46 26 4 6 -1.</_>
        <_>
          46 26 2 6 2.</_></rects>
      <tilted>1</tilted></_>
    <_>
      <rects>
        <_>
          47 0 2 7 -1.</_>
        <_>
          48 0 1 7 2.</_></rects>
      <tilted>0</tilted></_>
    <_>
      <rects>
        <_>
          47 6 2 16 -1.</_>
        <_>
          47 10 2 8 2.</_></rects>
      <tilted>0</tilted></_>
    <_>
      <rects>
        <_>
          48 11 2 12 -1.</_>
        <_>
          48 14 2 6 2.</_></rects>
      <tilted>0</tilted></_>
    <_>
      <rects>
        <_>
          49 7 1 9 -1.</_>
        <_>
          49 10 1 3 3.</_></rects>
      <tilted>0</tilted></_>
    <_>
      <rects>
        <_>
          49 7 1 14 -1.</_>
        <_>
          49 14 1 7 2.</_></rects>
      <tilted>0</tilted></_>
    <_>
      <rects>
        <_>
          49 8 1 15 -1.</_>
        <_>
          49 13 1 5 3.</_></rects>
      <tilted>0</tilted></_>
    <_>
      <rects>
        <_>
          49 9 1 6 -1.</_>
        <_>
          49 12 1 3 2.</_></rects>
      <tilted>0</tilted></_>
    <_>
      <rects>
        <_>
          49 22 1 15 -1.</_>
        <_>
          49 27 1 5 3.</_></rects>
      <tilted>0</tilted></_></features></cascade>
</opencv_storage>
