<?xml version="1.0"?>
<opencv_storage>
<cascade>
  <stageType>BOOST</stageType>
  <featureType>HAAR</featureType>
  <height>30</height>
  <width>30</width>
  <stageParams>
    <boostType>GAB</boostType>
    <minHitRate>9.9900001287460327e-01</minHitRate>
    <maxFalseAlarm>5.0000000000000000e-01</maxFalseAlarm>
    <weightTrimRate>9.4999999999999996e-01</weightTrimRate>
    <maxDepth>1</maxDepth>
    <maxWeakCount>100</maxWeakCount></stageParams>
  <featureParams>
    <maxCatCount>0</maxCatCount>
    <featSize>1</featSize>
    <mode>ALL</mode></featureParams>
  <stageNum>10</stageNum>
  <stages>
    <!-- stage 0 -->
    <_>
      <maxWeakCount>8</maxWeakCount>
      <stageThreshold>-1.9305367469787598e+00</stageThreshold>
      <weakClassifiers>
        <_>
          <internalNodes>
            0 -1 170 7.8096603974699974e-03</internalNodes>
          <leafValues>
            -9.6519845724105835e-01 -1.0411846637725830e-01</leafValues></_>
        <_>
          <internalNodes>
            0 -1 174 1.5197118045762181e-04</internalNodes>
          <leafValues>
            -6.9667589664459229e-01 2.0457002520561218e-01</leafValues></_>
        <_>
          <internalNodes>
            0 -1 57 -8.5394037887454033e-04</internalNodes>
          <leafValues>
            2.3992688953876495e-01 -7.4533152580261230e-01</leafValues></_>
        <_>
          <internalNodes>
            0 -1 241 4.8255303408950567e-04</internalNodes>
          <leafValues>
            -6.8385469913482666e-01 2.6115149259567261e-01</leafValues></_>
        <_>
          <internalNodes>
            0 -1 149 1.0725470259785652e-02</internalNodes>
          <leafValues>
            1.9998535513877869e-01 -8.3960080146789551e-01</leafValues></_>
        <_>
          <internalNodes>
            0 -1 50 -2.2439066320657730e-02</internalNodes>
          <leafValues>
            -6.4126217365264893e-01 2.1648213267326355e-01</leafValues></_>
        <_>
          <internalNodes>
            0 -1 91 -6.7037185654044151e-03</internalNodes>
          <leafValues>
            5.6503093242645264e-01 -2.5458732247352600e-01</leafValues></_>
        <_>
          <internalNodes>
            0 -1 199 -2.6402686489745975e-04</internalNodes>
          <leafValues>
            2.8037089109420776e-01 -5.4371440410614014e-01</leafValues></_></weakClassifiers></_>
    <!-- stage 1 -->
    <_>
      <maxWeakCount>14</maxWeakCount>
      <stageThreshold>-1.9086172580718994e+00</stageThreshold>
      <weakClassifiers>
        <_>
          <internalNodes>
            0 -1 182 -3.9294525777222589e-05</internalNodes>
          <leafValues>
            -1.7670886218547821e-01 -8.1530863046646118e-01</leafValues></_>
        <_>
          <internalNodes>
            0 -1 179 2.1402668207883835e-03</internalNodes>
          <leafValues>
            -9.6119421720504761e-01 4.9899879842996597e-02</leafValues></_>
        <_>
          <internalNodes>
            0 -1 1 1.2684768065810204e-02</internalNodes>
          <leafValues>
            -2.4000534415245056e-01 5.9234362840652466e-01</leafValues></_>
        <_>
          <internalNodes>
            0 -1 203 1.9652475602924824e-03</internalNodes>
          <leafValues>
            -4.0234050154685974e-01 3.4548336267471313e-01</leafValues></_>
        <_>
          <internalNodes>
            0 -1 82 2.7543738484382629e-02</internalNodes>
          <leafValues>
            1.8805445730686188e-01 -7.8107094764709473e-01</leafValues></_>
        <_>
          <internalNodes>
            0 -1 126 -4.2179287411272526e-03</internalNodes>
          <leafValues>
            -7.1163862943649292e-01 1.5494024753570557e-01</leafValues></_>
        <_>
          <internalNodes>
            0 -1 195 1.2759598903357983e-03</internalNodes>
          <leafValues>
            -6.2964111566543579e-01 1.9545753300189972e-01</leafValues></_>
        <_>
          <internalNodes>
            0 -1 139 -3.9884755096863955e-05</internalNodes>
          <leafValues>
            2.5595265626907349e-01 -5.2973026037216187e-01</leafValues></_>
        <_>
          <internalNodes>
            0 -1 76 1.1311760172247887e-03</internalNodes>
          <leafValues>
            -3.7220636010169983e-01 3.0874603986740112e-01</leafValues></_>
        <_>
          <internalNodes>
            0 -1 124 -1.0927567258477211e-02</internalNodes>
          <leafValues>
            -9.4815886020660400e-01 1.2091305106878281e-01</leafValues></_>
        <_>
          <internalNodes>
            0 -1 81 -1.1869832873344421e-02</internalNodes>
          <leafValues>
            -8.4239017963409424e-01 8.1162184476852417e-02</leafValues></_>
        <_>
          <internalNodes>
            0 -1 140 5.6373886764049530e-04</internalNodes>
          <leafValues>
            -4.1542777419090271e-01 2.0946553349494934e-01</leafValues></_>
        <_>
          <internalNodes>
            0 -1 94 -1.0598141700029373e-02</internalNodes>
          <leafValues>
            -8.8305962085723877e-01 1.1107365787029266e-01</leafValues></_>
        <_>
          <internalNodes>
            0 -1 189 -3.3610302489250898e-03</internalNodes>
          <leafValues>
            4.1829085350036621e-01 -2.6663345098495483e-01</leafValues></_></weakClassifiers></_>
    <!-- stage 2 -->
    <_>
      <maxWeakCount>17</maxWeakCount>
      <stageThreshold>-1.8266716003417969e+00</stageThreshold>
      <weakClassifiers>
        <_>
          <internalNodes>
            0 -1 38 2.5933271273970604e-02</internalNodes>
          <leafValues>
            -5.9266459941864014e-01 3.3167082071304321e-01</leafValues></_>
        <_>
          <internalNodes>
            0 -1 49 1.4444497413933277e-02</internalNodes>
          <leafValues>
            1.6924354434013367e-01 -5.6223326921463013e-01</leafValues></_>
        <_>
          <internalNodes>
            0 -1 143 -1.7572147771716118e-03</internalNodes>
          <leafValues>
            2.2460593283176422e-01 -5.3711259365081787e-01</leafValues></_>
        <_>
          <internalNodes>
            0 -1 95 1.4257621951401234e-03</internalNodes>
          <leafValues>
            -5.3204452991485596e-01 2.3377645015716553e-01</leafValues></_>
        <_>
          <internalNodes>
            0 -1 235 -1.2259336188435555e-02</internalNodes>
          <leafValues>
            5.2133738994598389e-01 -2.1103984117507935e-01</leafValues></_>
        <_>
          <internalNodes>
            0 -1 201 -2.4103573523461819e-03</internalNodes>
          <leafValues>
            3.0935686826705933e-01 -3.4091246128082275e-01</leafValues></_>
        <_>
          <internalNodes>
            0 -1 33 1.0782349854707718e-02</internalNodes>
          <leafValues>
            9.8402552306652069e-02 -8.8134998083114624e-01</leafValues></_>
        <_>
          <internalNodes>
            0 -1 45 -1.2393514625728130e-02</internalNodes>
          <leafValues>
            5.0175553560256958e-01 -2.0505641400814056e-01</leafValues></_>
        <_>
          <internalNodes>
            0 -1 154 4.3047463987022638e-04</internalNodes>
          <leafValues>
            9.9936544895172119e-02 -8.7448358535766602e-01</leafValues></_>
        <_>
          <internalNodes>
            0 -1 163 -2.5625831767683849e-05</internalNodes>
          <leafValues>
            2.0627509057521820e-01 -3.8652375340461731e-01</leafValues></_>
        <_>
          <internalNodes>
            0 -1 208 -2.5218439986929297e-05</internalNodes>
          <leafValues>
            2.3695819079875946e-01 -4.0453362464904785e-01</leafValues></_>
        <_>
          <internalNodes>
            0 -1 80 -2.0044860430061817e-03</internalNodes>
          <leafValues>
            2.7815580368041992e-01 -2.9224300384521484e-01</leafValues></_>
        <_>
          <internalNodes>
            0 -1 41 -1.3032693415880203e-02</internalNodes>
          <leafValues>
            -8.2847309112548828e-01 1.0590963810682297e-01</leafValues></_>
        <_>
          <internalNodes>
            0 -1 238 -5.2008498460054398e-03</internalNodes>
          <leafValues>
            4.6557733416557312e-01 -1.9668403267860413e-01</leafValues></_>
        <_>
          <internalNodes>
            0 -1 64 1.8658209592103958e-03</internalNodes>
          <leafValues>
            -3.2173907756805420e-01 2.5766175985336304e-01</leafValues></_>
        <_>
          <internalNodes>
            0 -1 113 5.4863407276570797e-03</internalNodes>
          <leafValues>
            8.2579076290130615e-02 -8.6425948143005371e-01</leafValues></_>
        <_>
          <internalNodes>
            0 -1 219 -1.0069834068417549e-02</internalNodes>
          <leafValues>
            3.8737949728965759e-01 -2.1000011265277863e-01</leafValues></_></weakClassifiers></_>
    <!-- stage 3 -->
    <_>
      <maxWeakCount>26</maxWeakCount>
      <stageThreshold>-2.1796405315399170e+00</stageThreshold>
      <weakClassifiers>
        <_>
          <internalNodes>
            0 -1 66 -2.9422547668218613e-02</internalNodes>
          <leafValues>
            2.6403325796127319e-01 -6.0443305969238281e-01</leafValues></_>
        <_>
          <internalNodes>
            0 -1 4 9.4930420164018869e-04</internalNodes>
          <leafValues>
            -2.4809867143630981e-01 4.9318978190422058e-01</leafValues></_>
        <_>
          <internalNodes>
            0 -1 59 -3.3626445656409487e-05</internalNodes>
          <leafValues>
            2.4673831462860107e-01 -3.5216537117958069e-01</leafValues></_>
        <_>
          <internalNodes>
            0 -1 185 1.4934532810002565e-03</internalNodes>
          <leafValues>
            -2.8547656536102295e-01 2.9445391893386841e-01</leafValues></_>
        <_>
          <internalNodes>
            0 -1 42 -2.9756961157545447e-04</internalNodes>
          <leafValues>
            1.2783005833625793e-01 -6.6540932655334473e-01</leafValues></_>
        <_>
          <internalNodes>
            0 -1 212 4.9135172739624977e-03</internalNodes>
          <leafValues>
            1.1408457159996033e-01 -7.8011339902877808e-01</leafValues></_>
        <_>
          <internalNodes>
            0 -1 90 1.3240963453426957e-03</internalNodes>
          <leafValues>
            -3.1571501493453979e-01 2.7206218242645264e-01</leafValues></_>
        <_>
          <internalNodes>
            0 -1 136 -5.4573127999901772e-04</internalNodes>
          <leafValues>
            3.2506501674652100e-01 -3.1332117319107056e-01</leafValues></_>
        <_>
          <internalNodes>
            0 -1 73 -1.9633902411442250e-05</internalNodes>
          <leafValues>
            2.5349810719490051e-01 -3.5927626490592957e-01</leafValues></_>
        <_>
          <internalNodes>
            0 -1 176 -3.1948179821483791e-04</internalNodes>
          <leafValues>
            2.3895765841007233e-01 -3.3278769254684448e-01</leafValues></_>
        <_>
          <internalNodes>
            0 -1 53 1.0070113930851221e-03</internalNodes>
          <leafValues>
            1.2081409990787506e-01 -6.7061644792556763e-01</leafValues></_>
        <_>
          <internalNodes>
            0 -1 239 -5.7458542287349701e-03</internalNodes>
          <leafValues>
            5.3449904918670654e-01 -1.6276326775550842e-01</leafValues></_>
        <_>
          <internalNodes>
            0 -1 20 -4.5052804052829742e-03</internalNodes>
          <leafValues>
            5.6435441970825195e-01 -1.1973605304956436e-01</leafValues></_>
        <_>
          <internalNodes>
            0 -1 19 3.3412936609238386e-03</internalNodes>
          <leafValues>
            -1.3476262986660004e-01 5.1875364780426025e-01</leafValues></_>
        <_>
          <internalNodes>
            0 -1 155 -2.2420240566134453e-03</internalNodes>
          <leafValues>
            -9.1972643136978149e-01 8.8562987744808197e-02</leafValues></_>
        <_>
          <internalNodes>
            0 -1 240 1.5476200496777892e-03</internalNodes>
          <leafValues>
            -1.8323123455047607e-01 3.8768017292022705e-01</leafValues></_>
        <_>
          <internalNodes>
            0 -1 159 4.6246713027358055e-03</internalNodes>
          <leafValues>
            8.7308444082736969e-02 -8.1924122571945190e-01</leafValues></_>
        <_>
          <internalNodes>
            0 -1 79 7.8156366944313049e-03</internalNodes>
          <leafValues>
            -1.2810829281806946e-01 5.8849543333053589e-01</leafValues></_>
        <_>
          <internalNodes>
            0 -1 216 8.0760298296809196e-03</internalNodes>
          <leafValues>
            -1.8888419866561890e-01 3.7461569905281067e-01</leafValues></_>
        <_>
          <internalNodes>
            0 -1 221 -7.5753410346806049e-03</internalNodes>
          <leafValues>
            -7.6855450868606567e-01 9.0060986578464508e-02</leafValues></_>
        <_>
          <internalNodes>
            0 -1 120 -2.5123762898147106e-03</internalNodes>
          <leafValues>
            4.4957086443901062e-01 -1.6129150986671448e-01</leafValues></_>
        <_>
          <internalNodes>
            0 -1 18 -4.3877906864508986e-04</internalNodes>
          <leafValues>
            1.9048371911048889e-01 -3.4638178348541260e-01</leafValues></_>
        <_>
          <internalNodes>
            0 -1 43 1.1933453381061554e-02</internalNodes>
          <leafValues>
            7.8537024557590485e-02 -9.1717189550399780e-01</leafValues></_>
        <_>
          <internalNodes>
            0 -1 83 -2.0934865460731089e-05</internalNodes>
          <leafValues>
            1.7621524631977081e-01 -3.5197412967681885e-01</leafValues></_>
        <_>
          <internalNodes>
            0 -1 118 -3.5273060202598572e-03</internalNodes>
          <leafValues>
            4.6212127804756165e-01 -1.4772140979766846e-01</leafValues></_>
        <_>
          <internalNodes>
            0 -1 115 1.6967297415249050e-04</internalNodes>
          <leafValues>
            -4.6544566750526428e-01 1.4760562777519226e-01</leafValues></_></weakClassifiers></_>
    <!-- stage 4 -->
    <_>
      <maxWeakCount>21</maxWeakCount>
      <stageThreshold>-1.6845506429672241e+00</stageThreshold>
      <weakClassifiers>
        <_>
          <internalNodes>
            0 -1 46 1.8453452736139297e-02</internalNodes>
          <leafValues>
            -6.1937934160232544e-01 -5.2256532013416290e-02</leafValues></_>
        <_>
          <internalNodes>
            0 -1 5 -8.6705684661865234e-03</internalNodes>
          <leafValues>
            5.6494241952896118e-01 -2.0305646955966949e-01</leafValues></_>
        <_>
          <internalNodes>
            0 -1 0 7.4303634464740753e-03</internalNodes>
          <leafValues>
            -2.4099904298782349e-01 3.7381210923194885e-01</leafValues></_>
        <_>
          <internalNodes>
            0 -1 135 -8.9918139565270394e-06</internalNodes>
          <leafValues>
            1.9098801910877228e-01 -4.3540927767753601e-01</leafValues></_>
        <_>
          <internalNodes>
            0 -1 196 2.2274190559983253e-03</internalNodes>
          <leafValues>
            -3.3026772737503052e-01 2.4478937685489655e-01</leafValues></_>
        <_>
          <internalNodes>
            0 -1 187 1.9686606246978045e-03</internalNodes>
          <leafValues>
            1.2187776714563370e-01 -8.7033021450042725e-01</leafValues></_>
        <_>
          <internalNodes>
            0 -1 224 6.4578697085380554e-02</internalNodes>
          <leafValues>
            -1.7131300270557404e-01 5.0530785322189331e-01</leafValues></_>
        <_>
          <internalNodes>
            0 -1 111 3.9201546460390091e-03</internalNodes>
          <leafValues>
            1.8210986256599426e-01 -5.0220853090286255e-01</leafValues></_>
        <_>
          <internalNodes>
            0 -1 217 -2.7704439125955105e-03</internalNodes>
          <leafValues>
            -8.1079912185668945e-01 1.0035967826843262e-01</leafValues></_>
        <_>
          <internalNodes>
            0 -1 17 -6.9835991598665714e-03</internalNodes>
          <leafValues>
            5.1203733682632446e-01 -1.6291537880897522e-01</leafValues></_>
        <_>
          <internalNodes>
            0 -1 206 -6.8204412236809731e-03</internalNodes>
          <leafValues>
            -9.8083198070526123e-01 7.1191795170307159e-02</leafValues></_>
        <_>
          <internalNodes>
            0 -1 24 4.3108761310577393e-03</internalNodes>
          <leafValues>
            8.0577909946441650e-02 -7.3998653888702393e-01</leafValues></_>
        <_>
          <internalNodes>
            0 -1 236 6.0323262587189674e-03</internalNodes>
          <leafValues>
            -2.1047604084014893e-01 3.1533637642860413e-01</leafValues></_>
        <_>
          <internalNodes>
            0 -1 227 -1.2822886928915977e-02</internalNodes>
          <leafValues>
            5.0601714849472046e-01 -1.3036693632602692e-01</leafValues></_>
        <_>
          <internalNodes>
            0 -1 186 -1.6737005207687616e-03</internalNodes>
          <leafValues>
            -8.1665980815887451e-01 9.5740914344787598e-02</leafValues></_>
        <_>
          <internalNodes>
            0 -1 234 4.3780487030744553e-03</internalNodes>
          <leafValues>
            -1.5957520902156830e-01 4.7022360563278198e-01</leafValues></_>
        <_>
          <internalNodes>
            0 -1 93 1.5240192413330078e-01</internalNodes>
          <leafValues>
            6.8093255162239075e-02 -9.8708546161651611e-01</leafValues></_>
        <_>
          <internalNodes>
            0 -1 184 -5.1674002315849066e-04</internalNodes>
          <leafValues>
            1.5605944395065308e-01 -3.4502720832824707e-01</leafValues></_>
        <_>
          <internalNodes>
            0 -1 146 4.9590086936950684e-01</internalNodes>
          <leafValues>
            -1.0597291588783264e-01 6.9944256544113159e-01</leafValues></_>
        <_>
          <internalNodes>
            0 -1 133 -2.3654627148061991e-03</internalNodes>
          <leafValues>
            -8.6898183822631836e-01 8.8113494217395782e-02</leafValues></_>
        <_>
          <internalNodes>
            0 -1 14 -1.5748841688036919e-03</internalNodes>
          <leafValues>
            3.9917346835136414e-01 -1.5981672704219818e-01</leafValues></_></weakClassifiers></_>
    <!-- stage 5 -->
    <_>
      <maxWeakCount>23</maxWeakCount>
      <stageThreshold>-1.7749058008193970e+00</stageThreshold>
      <weakClassifiers>
        <_>
          <internalNodes>
            0 -1 223 -3.9198793470859528e-02</internalNodes>
          <leafValues>
            -2.3323616012930870e-02 -5.9867227077484131e-01</leafValues></_>
        <_>
          <internalNodes>
            0 -1 86 4.1860109195113182e-03</internalNodes>
          <leafValues>
            -4.2827022075653076e-01 1.4700676500797272e-01</leafValues></_>
        <_>
          <internalNodes>
            0 -1 37 -1.0024084709584713e-02</internalNodes>
          <leafValues>
            4.1038498282432556e-01 -1.7880931496620178e-01</leafValues></_>
        <_>
          <internalNodes>
            0 -1 182 -7.4193230830132961e-05</internalNodes>
          <leafValues>
            1.8294329941272736e-01 -3.5178920626640320e-01</leafValues></_>
        <_>
          <internalNodes>
            0 -1 112 -3.2221258152276278e-03</internalNodes>
          <leafValues>
            -8.5800713300704956e-01 1.0649970918893814e-01</leafValues></_>
        <_>
          <internalNodes>
            0 -1 228 2.4906196631491184e-03</internalNodes>
          <leafValues>
            -1.9119673967361450e-01 3.5735768079757690e-01</leafValues></_>
        <_>
          <internalNodes>
            0 -1 68 -6.1002667061984539e-03</internalNodes>
          <leafValues>
            4.0649259090423584e-01 -1.7436458170413971e-01</leafValues></_>
        <_>
          <internalNodes>
            0 -1 2 -2.6122950017452240e-02</internalNodes>
          <leafValues>
            5.3432494401931763e-01 -1.5316013991832733e-01</leafValues></_>
        <_>
          <internalNodes>
            0 -1 85 1.4372445642948151e-02</internalNodes>
          <leafValues>
            1.1433972418308258e-01 -7.3395991325378418e-01</leafValues></_>
        <_>
          <internalNodes>
            0 -1 23 -2.9645051807165146e-02</internalNodes>
          <leafValues>
            -8.0725312232971191e-01 5.7383451610803604e-02</leafValues></_>
        <_>
          <internalNodes>
            0 -1 231 -4.0015103295445442e-03</internalNodes>
          <leafValues>
            3.9310020208358765e-01 -1.7566756904125214e-01</leafValues></_>
        <_>
          <internalNodes>
            0 -1 181 2.1856031380593777e-03</internalNodes>
          <leafValues>
            8.2267485558986664e-02 -8.0341583490371704e-01</leafValues></_>
        <_>
          <internalNodes>
            0 -1 75 6.4833066426217556e-04</internalNodes>
          <leafValues>
            -2.7293467521667480e-01 2.1810285747051239e-01</leafValues></_>
        <_>
          <internalNodes>
            0 -1 173 1.2642620276892558e-05</internalNodes>
          <leafValues>
            -3.3376857638359070e-01 2.2658479213714600e-01</leafValues></_>
        <_>
          <internalNodes>
            0 -1 32 -9.7617891151458025e-04</internalNodes>
          <leafValues>
            1.6770705580711365e-01 -3.6321711540222168e-01</leafValues></_>
        <_>
          <internalNodes>
            0 -1 29 1.4173265546560287e-02</internalNodes>
          <leafValues>
            -1.4160855114459991e-01 4.3338280916213989e-01</leafValues></_>
        <_>
          <internalNodes>
            0 -1 168 -7.2757571935653687e-02</internalNodes>
          <leafValues>
            -8.6673271656036377e-01 7.5303025543689728e-02</leafValues></_>
        <_>
          <internalNodes>
            0 -1 188 2.1365832071751356e-03</internalNodes>
          <leafValues>
            6.2363386154174805e-02 -7.1557432413101196e-01</leafValues></_>
        <_>
          <internalNodes>
            0 -1 205 -7.0306472480297089e-03</internalNodes>
          <leafValues>
            3.0350270867347717e-01 -1.8336421251296997e-01</leafValues></_>
        <_>
          <internalNodes>
            0 -1 229 3.6906390450894833e-03</internalNodes>
          <leafValues>
            -1.3360798358917236e-01 4.5483872294425964e-01</leafValues></_>
        <_>
          <internalNodes>
            0 -1 3 1.5528703108429909e-02</internalNodes>
          <leafValues>
            -1.6622874140739441e-01 3.4612116217613220e-01</leafValues></_>
        <_>
          <internalNodes>
            0 -1 127 2.5372892618179321e-02</internalNodes>
          <leafValues>
            6.4917892217636108e-02 -8.6034947633743286e-01</leafValues></_>
        <_>
          <internalNodes>
            0 -1 193 -9.5298048108816147e-04</internalNodes>
          <leafValues>
            2.2975681722164154e-01 -2.6929381489753723e-01</leafValues></_></weakClassifiers></_>
    <!-- stage 6 -->
    <_>
      <maxWeakCount>32</maxWeakCount>
      <stageThreshold>-1.8047960996627808e+00</stageThreshold>
      <weakClassifiers>
        <_>
          <internalNodes>
            0 -1 220 2.7241837233304977e-02</internalNodes>
          <leafValues>
            -5.7434731721878052e-01 5.0420168787240982e-02</leafValues></_>
        <_>
          <internalNodes>
            0 -1 180 -1.2854302767664194e-03</internalNodes>
          <leafValues>
            2.2720876336097717e-01 -2.7139297127723694e-01</leafValues></_>
        <_>
          <internalNodes>
            0 -1 153 -4.2342050001025200e-03</internalNodes>
          <leafValues>
            -7.4373424053192139e-01 7.8238651156425476e-02</leafValues></_>
        <_>
          <internalNodes>
            0 -1 74 2.6340488693676889e-04</internalNodes>
          <leafValues>
            -3.3346173167228699e-01 2.0702527463436127e-01</leafValues></_>
        <_>
          <internalNodes>
            0 -1 78 -1.0175662115216255e-02</internalNodes>
          <leafValues>
            2.9531458020210266e-01 -2.1518959105014801e-01</leafValues></_>
        <_>
          <internalNodes>
            0 -1 107 8.0642998218536377e-03</internalNodes>
          <leafValues>
            -1.3867102563381195e-01 4.0605625510215759e-01</leafValues></_>
        <_>
          <internalNodes>
            0 -1 137 -8.8819250231608748e-04</internalNodes>
          <leafValues>
            1.7116995155811310e-01 -3.7898549437522888e-01</leafValues></_>
        <_>
          <internalNodes>
            0 -1 166 1.4773329894524068e-05</internalNodes>
          <leafValues>
            -2.1119414269924164e-01 2.9990303516387939e-01</leafValues></_>
        <_>
          <internalNodes>
            0 -1 62 5.6030745618045330e-03</internalNodes>
          <leafValues>
            1.4492830634117126e-01 -3.9895498752593994e-01</leafValues></_>
        <_>
          <internalNodes>
            0 -1 171 -5.5950870737433434e-03</internalNodes>
          <leafValues>
            2.8516727685928345e-01 -2.4180406332015991e-01</leafValues></_>
        <_>
          <internalNodes>
            0 -1 226 -2.0877430215477943e-02</internalNodes>
          <leafValues>
            3.3625075221061707e-01 -1.5450257062911987e-01</leafValues></_>
        <_>
          <internalNodes>
            0 -1 35 -3.7001196295022964e-02</internalNodes>
          <leafValues>
            4.5892891287803650e-01 -1.2742261588573456e-01</leafValues></_>
        <_>
          <internalNodes>
            0 -1 131 9.5891824457794428e-04</internalNodes>
          <leafValues>
            7.4271120131015778e-02 -8.0812406539916992e-01</leafValues></_>
        <_>
          <internalNodes>
            0 -1 77 2.0503038540482521e-03</internalNodes>
          <leafValues>
            -3.0996203422546387e-01 1.7865462601184845e-01</leafValues></_>
        <_>
          <internalNodes>
            0 -1 89 -1.2313495390117168e-03</internalNodes>
          <leafValues>
            5.8264994621276855e-01 -1.0417669266462326e-01</leafValues></_>
        <_>
          <internalNodes>
            0 -1 218 -3.8960268720984459e-03</internalNodes>
          <leafValues>
            3.7643772363662720e-01 -1.4219598472118378e-01</leafValues></_>
        <_>
          <internalNodes>
            0 -1 128 -2.8802703600376844e-03</internalNodes>
          <leafValues>
            -7.7027159929275513e-01 7.6900459825992584e-02</leafValues></_>
        <_>
          <internalNodes>
            0 -1 92 2.6457361876964569e-02</internalNodes>
          <leafValues>
            -1.3904732465744019e-01 3.9719951152801514e-01</leafValues></_>
        <_>
          <internalNodes>
            0 -1 108 -8.7763667106628418e-03</internalNodes>
          <leafValues>
            4.9272093176841736e-01 -1.1366488784551620e-01</leafValues></_>
        <_>
          <internalNodes>
            0 -1 125 -9.0631991624832153e-03</internalNodes>
          <leafValues>
            -7.8648513555526733e-01 7.6305978000164032e-02</leafValues></_>
        <_>
          <internalNodes>
            0 -1 21 -5.4865363053977489e-03</internalNodes>
          <leafValues>
            4.6995961666107178e-01 -1.2243679910898209e-01</leafValues></_>
        <_>
          <internalNodes>
            0 -1 55 6.1796867521479726e-04</internalNodes>
          <leafValues>
            8.6369134485721588e-02 -6.0440248250961304e-01</leafValues></_>
        <_>
          <internalNodes>
            0 -1 8 1.8666554242372513e-03</internalNodes>
          <leafValues>
            -1.2373781204223633e-01 4.1752529144287109e-01</leafValues></_>
        <_>
          <internalNodes>
            0 -1 191 9.7570975776761770e-04</internalNodes>
          <leafValues>
            -5.4006969928741455e-01 9.8032459616661072e-02</leafValues></_>
        <_>
          <internalNodes>
            0 -1 97 -4.9418071284890175e-04</internalNodes>
          <leafValues>
            1.8967084586620331e-01 -2.7261534333229065e-01</leafValues></_>
        <_>
          <internalNodes>
            0 -1 172 -8.8600878370925784e-04</internalNodes>
          <leafValues>
            4.9479085206985474e-01 -1.1513461172580719e-01</leafValues></_>
        <_>
          <internalNodes>
            0 -1 71 7.1023736381903291e-05</internalNodes>
          <leafValues>
            -3.0007839202880859e-01 1.9392096996307373e-01</leafValues></_>
        <_>
          <internalNodes>
            0 -1 210 -2.5587985292077065e-03</internalNodes>
          <leafValues>
            -8.3971822261810303e-01 5.7549029588699341e-02</leafValues></_>
        <_>
          <internalNodes>
            0 -1 48 1.4000756666064262e-02</internalNodes>
          <leafValues>
            4.5039232820272446e-02 -7.8826260566711426e-01</leafValues></_>
        <_>
          <internalNodes>
            0 -1 164 -7.8036959166638553e-05</internalNodes>
          <leafValues>
            1.9859021902084351e-01 -2.5521799921989441e-01</leafValues></_>
        <_>
          <internalNodes>
            0 -1 102 -1.7091908375732601e-04</internalNodes>
          <leafValues>
            2.0903864502906799e-01 -2.3718173801898956e-01</leafValues></_>
        <_>
          <internalNodes>
            0 -1 28 -9.8644178360700607e-03</internalNodes>
          <leafValues>
            3.7615680694580078e-01 -1.3541449606418610e-01</leafValues></_></weakClassifiers></_>
    <!-- stage 7 -->
    <_>
      <maxWeakCount>35</maxWeakCount>
      <stageThreshold>-1.8534853458404541e+00</stageThreshold>
      <weakClassifiers>
        <_>
          <internalNodes>
            0 -1 242 -7.7331387437880039e-03</internalNodes>
          <leafValues>
            -2.1868787705898285e-02 -5.6877321004867554e-01</leafValues></_>
        <_>
          <internalNodes>
            0 -1 47 -3.9655057480558753e-04</internalNodes>
          <leafValues>
            1.2779787182807922e-01 -3.4812641143798828e-01</leafValues></_>
        <_>
          <internalNodes>
            0 -1 54 1.4179325662553310e-03</internalNodes>
          <leafValues>
            6.9190464913845062e-02 -7.9850667715072632e-01</leafValues></_>
        <_>
          <internalNodes>
            0 -1 22 -2.6481948792934418e-02</internalNodes>
          <leafValues>
            3.1752070784568787e-01 -1.5494731068611145e-01</leafValues></_>
        <_>
          <internalNodes>
            0 -1 67 -8.4200529381632805e-03</internalNodes>
          <leafValues>
            4.8763680458068848e-01 -1.2164625525474548e-01</leafValues></_>
        <_>
          <internalNodes>
            0 -1 213 -7.0461181167047471e-05</internalNodes>
          <leafValues>
            1.7882725596427917e-01 -2.9436242580413818e-01</leafValues></_>
        <_>
          <internalNodes>
            0 -1 190 -1.7448314465582371e-03</internalNodes>
          <leafValues>
            -7.2597509622573853e-01 9.3170635402202606e-02</leafValues></_>
        <_>
          <internalNodes>
            0 -1 26 -5.8236978948116302e-03</internalNodes>
          <leafValues>
            3.7577155232429504e-01 -1.3196203112602234e-01</leafValues></_>
        <_>
          <internalNodes>
            0 -1 243 -2.7673211880028248e-03</internalNodes>
          <leafValues>
            3.1401574611663818e-01 -1.4591990411281586e-01</leafValues></_>
        <_>
          <internalNodes>
            0 -1 160 2.6089905077242292e-05</internalNodes>
          <leafValues>
            -1.9706739485263824e-01 2.5511610507965088e-01</leafValues></_>
        <_>
          <internalNodes>
            0 -1 130 1.3116956688463688e-03</internalNodes>
          <leafValues>
            6.6569454967975616e-02 -8.3139407634735107e-01</leafValues></_>
        <_>
          <internalNodes>
            0 -1 39 -1.0391859337687492e-02</internalNodes>
          <leafValues>
            2.1331395208835602e-01 -2.3676787316799164e-01</leafValues></_>
        <_>
          <internalNodes>
            0 -1 167 -4.5283935032784939e-03</internalNodes>
          <leafValues>
            3.0599868297576904e-01 -1.5929287672042847e-01</leafValues></_>
        <_>
          <internalNodes>
            0 -1 202 -6.3619355205446482e-04</internalNodes>
          <leafValues>
            2.5052493810653687e-01 -1.8675084412097931e-01</leafValues></_>
        <_>
          <internalNodes>
            0 -1 117 -1.4767091488465667e-03</internalNodes>
          <leafValues>
            -8.8246810436248779e-01 4.7571510076522827e-02</leafValues></_>
        <_>
          <internalNodes>
            0 -1 142 -2.2747804177924991e-04</internalNodes>
          <leafValues>
            2.1581482887268066e-01 -2.1364790201187134e-01</leafValues></_>
        <_>
          <internalNodes>
            0 -1 114 2.3743037672829814e-05</internalNodes>
          <leafValues>
            -3.0628621578216553e-01 1.6254070401191711e-01</leafValues></_>
        <_>
          <internalNodes>
            0 -1 207 -1.3546147383749485e-03</internalNodes>
          <leafValues>
            -7.4688231945037842e-01 6.5041258931159973e-02</leafValues></_>
        <_>
          <internalNodes>
            0 -1 110 4.4090831652283669e-03</internalNodes>
          <leafValues>
            -2.0446191728115082e-01 2.3274894058704376e-01</leafValues></_>
        <_>
          <internalNodes>
            0 -1 51 8.6616482585668564e-03</internalNodes>
          <leafValues>
            8.2319676876068115e-02 -6.6064029932022095e-01</leafValues></_>
        <_>
          <internalNodes>
            0 -1 70 -6.5756333060562611e-04</internalNodes>
          <leafValues>
            2.1172229945659637e-01 -2.3242716491222382e-01</leafValues></_>
        <_>
          <internalNodes>
            0 -1 101 -3.4375446848571301e-03</internalNodes>
          <leafValues>
            4.4758602976799011e-01 -1.1969849467277527e-01</leafValues></_>
        <_>
          <internalNodes>
            0 -1 145 -9.4731594435870647e-04</internalNodes>
          <leafValues>
            -5.5453050136566162e-01 8.6924560368061066e-02</leafValues></_>
        <_>
          <internalNodes>
            0 -1 11 1.2740164529532194e-03</internalNodes>
          <leafValues>
            -1.4665010571479797e-01 3.2682144641876221e-01</leafValues></_>
        <_>
          <internalNodes>
            0 -1 65 -6.9244667887687683e-02</internalNodes>
          <leafValues>
            2.8739491105079651e-01 -1.5765896439552307e-01</leafValues></_>
        <_>
          <internalNodes>
            0 -1 237 5.1875421777367592e-03</internalNodes>
          <leafValues>
            -1.0677471756935120e-01 4.2451101541519165e-01</leafValues></_>
        <_>
          <internalNodes>
            0 -1 215 -5.1669524982571602e-03</internalNodes>
          <leafValues>
            -6.6949814558029175e-01 7.7668674290180206e-02</leafValues></_>
        <_>
          <internalNodes>
            0 -1 44 -2.2429969249060377e-05</internalNodes>
          <leafValues>
            1.5931831300258636e-01 -2.7772888541221619e-01</leafValues></_>
        <_>
          <internalNodes>
            0 -1 177 -2.8989408165216446e-02</internalNodes>
          <leafValues>
            -8.7267625331878662e-01 5.0770826637744904e-02</leafValues></_>
        <_>
          <internalNodes>
            0 -1 58 4.8488881438970566e-03</internalNodes>
          <leafValues>
            1.6496299207210541e-01 -2.7916312217712402e-01</leafValues></_>
        <_>
          <internalNodes>
            0 -1 200 -2.2508609108626842e-03</internalNodes>
          <leafValues>
            2.0358578860759735e-01 -2.6367387175559998e-01</leafValues></_>
        <_>
          <internalNodes>
            0 -1 34 1.2922701425850391e-03</internalNodes>
          <leafValues>
            8.4888152778148651e-02 -6.4262855052947998e-01</leafValues></_>
        <_>
          <internalNodes>
            0 -1 175 -9.2882278840988874e-04</internalNodes>
          <leafValues>
            4.7849115729331970e-01 -1.0739976167678833e-01</leafValues></_>
        <_>
          <internalNodes>
            0 -1 84 4.5241546467877924e-04</internalNodes>
          <leafValues>
            1.1083657294511795e-01 -4.3147483468055725e-01</leafValues></_>
        <_>
          <internalNodes>
            0 -1 98 6.7023106385022402e-04</internalNodes>
          <leafValues>
            -2.0389004051685333e-01 2.2948616743087769e-01</leafValues></_></weakClassifiers></_>
    <!-- stage 8 -->
    <_>
      <maxWeakCount>34</maxWeakCount>
      <stageThreshold>-1.6553683280944824e+00</stageThreshold>
      <weakClassifiers>
        <_>
          <internalNodes>
            0 -1 225 2.5040343403816223e-02</internalNodes>
          <leafValues>
            -5.4816204309463501e-01 1.5750916302204132e-01</leafValues></_>
        <_>
          <internalNodes>
            0 -1 147 1.0490667773410678e-03</internalNodes>
          <leafValues>
            -1.8477460741996765e-01 3.4186032414436340e-01</leafValues></_>
        <_>
          <internalNodes>
            0 -1 121 1.6066338866949081e-03</internalNodes>
          <leafValues>
            -1.2749256193637848e-01 4.1004565358161926e-01</leafValues></_>
        <_>
          <internalNodes>
            0 -1 198 9.1015879297628999e-04</internalNodes>
          <leafValues>
            6.9643460214138031e-02 -7.4987417459487915e-01</leafValues></_>
        <_>
          <internalNodes>
            0 -1 196 2.6086405850946903e-03</internalNodes>
          <leafValues>
            -2.3176407814025879e-01 1.9657459855079651e-01</leafValues></_>
        <_>
          <internalNodes>
            0 -1 151 -1.8660090863704681e-03</internalNodes>
          <leafValues>
            3.9337599277496338e-01 -1.5161195397377014e-01</leafValues></_>
        <_>
          <internalNodes>
            0 -1 106 -1.5673567540943623e-03</internalNodes>
          <leafValues>
            -8.0583494901657104e-01 5.9747379273176193e-02</leafValues></_>
        <_>
          <internalNodes>
            0 -1 7 1.0205148719251156e-03</internalNodes>
          <leafValues>
            -1.2058687955141068e-01 4.0120396018028259e-01</leafValues></_>
        <_>
          <internalNodes>
            0 -1 123 -3.9197141304612160e-03</internalNodes>
          <leafValues>
            -5.4885661602020264e-01 8.1788852810859680e-02</leafValues></_>
        <_>
          <internalNodes>
            0 -1 233 5.1325643435120583e-03</internalNodes>
          <leafValues>
            -1.0801029950380325e-01 3.7585809826850891e-01</leafValues></_>
        <_>
          <internalNodes>
            0 -1 129 -1.1928561434615403e-05</internalNodes>
          <leafValues>
            2.1176685392856598e-01 -2.1770104765892029e-01</leafValues></_>
        <_>
          <internalNodes>
            0 -1 132 6.5837206784635782e-04</internalNodes>
          <leafValues>
            7.8867122530937195e-02 -5.0543278455734253e-01</leafValues></_>
        <_>
          <internalNodes>
            0 -1 134 4.3478989391587675e-04</internalNodes>
          <leafValues>
            8.2653529942035675e-02 -6.4450800418853760e-01</leafValues></_>
        <_>
          <internalNodes>
            0 -1 141 1.2852651998400688e-03</internalNodes>
          <leafValues>
            -1.0243418812751770e-01 4.6490547060966492e-01</leafValues></_>
        <_>
          <internalNodes>
            0 -1 162 -6.0195173136889935e-04</internalNodes>
          <leafValues>
            5.1092350482940674e-01 -1.0019829869270325e-01</leafValues></_>
        <_>
          <internalNodes>
            0 -1 157 -2.3391192371491343e-05</internalNodes>
          <leafValues>
            2.4370354413986206e-01 -2.3241464793682098e-01</leafValues></_>
        <_>
          <internalNodes>
            0 -1 6 -1.2410471215844154e-02</internalNodes>
          <leafValues>
            4.0213584899902344e-01 -1.0912246257066727e-01</leafValues></_>
        <_>
          <internalNodes>
            0 -1 96 -1.2755932286381721e-02</internalNodes>
          <leafValues>
            -5.8555734157562256e-01 8.6543202400207520e-02</leafValues></_>
        <_>
          <internalNodes>
            0 -1 189 -3.6981115117669106e-03</internalNodes>
          <leafValues>
            2.6149174571037292e-01 -1.7414516210556030e-01</leafValues></_>
        <_>
          <internalNodes>
            0 -1 61 -1.8587396480143070e-03</internalNodes>
          <leafValues>
            -8.8893175125122070e-01 5.1941078156232834e-02</leafValues></_>
        <_>
          <internalNodes>
            0 -1 144 -1.5169059624895453e-03</internalNodes>
          <leafValues>
            2.5146836042404175e-01 -1.9586631655693054e-01</leafValues></_>
        <_>
          <internalNodes>
            0 -1 183 -1.9532972946763039e-03</internalNodes>
          <leafValues>
            2.2529220581054688e-01 -2.1401116251945496e-01</leafValues></_>
        <_>
          <internalNodes>
            0 -1 104 2.4128437507897615e-03</internalNodes>
          <leafValues>
            1.1496838182210922e-01 -4.3752521276473999e-01</leafValues></_>
        <_>
          <internalNodes>
            0 -1 230 1.1326324893161654e-03</internalNodes>
          <leafValues>
            -1.4130045473575592e-01 3.3935338258743286e-01</leafValues></_>
        <_>
          <internalNodes>
            0 -1 119 4.6294599771499634e-02</internalNodes>
          <leafValues>
            -1.5541939437389374e-01 2.8078448772430420e-01</leafValues></_>
        <_>
          <internalNodes>
            0 -1 31 -8.5859531536698341e-03</internalNodes>
          <leafValues>
            3.7517613172531128e-01 -1.1346039921045303e-01</leafValues></_>
        <_>
          <internalNodes>
            0 -1 72 -1.6916772350668907e-02</internalNodes>
          <leafValues>
            -8.8609158992767334e-01 5.5424544960260391e-02</leafValues></_>
        <_>
          <internalNodes>
            0 -1 99 4.9492130056023598e-03</internalNodes>
          <leafValues>
            -3.4943756461143494e-01 1.1893527209758759e-01</leafValues></_>
        <_>
          <internalNodes>
            0 -1 161 -6.0923168348381296e-05</internalNodes>
          <leafValues>
            1.7901162803173065e-01 -2.4314589798450470e-01</leafValues></_>
        <_>
          <internalNodes>
            0 -1 152 -2.6679055299609900e-03</internalNodes>
          <leafValues>
            -8.3282285928726196e-01 5.2157875150442123e-02</leafValues></_>
        <_>
          <internalNodes>
            0 -1 56 2.9135008808225393e-03</internalNodes>
          <leafValues>
            -1.4146062731742859e-01 3.2377862930297852e-01</leafValues></_>
        <_>
          <internalNodes>
            0 -1 36 -9.4224959611892700e-03</internalNodes>
          <leafValues>
            -8.7993520498275757e-01 5.9120211750268936e-02</leafValues></_>
        <_>
          <internalNodes>
            0 -1 87 -2.5524897500872612e-04</internalNodes>
          <leafValues>
            1.4779239892959595e-01 -2.7395403385162354e-01</leafValues></_>
        <_>
          <internalNodes>
            0 -1 69 -3.1881530303508043e-03</internalNodes>
          <leafValues>
            2.7183774113655090e-01 -1.7378942668437958e-01</leafValues></_></weakClassifiers></_>
    <!-- stage 9 -->
    <_>
      <maxWeakCount>39</maxWeakCount>
      <stageThreshold>-1.8004624843597412e+00</stageThreshold>
      <weakClassifiers>
        <_>
          <internalNodes>
            0 -1 15 -2.1800168324261904e-03</internalNodes>
          <leafValues>
            -2.1706864237785339e-01 -6.0438054800033569e-01</leafValues></_>
        <_>
          <internalNodes>
            0 -1 138 -1.4591385479434393e-05</internalNodes>
          <leafValues>
            1.1313463002443314e-01 -3.6057186126708984e-01</leafValues></_>
        <_>
          <internalNodes>
            0 -1 105 2.3372075520455837e-03</internalNodes>
          <leafValues>
            5.0146948546171188e-02 -8.0593758821487427e-01</leafValues></_>
        <_>
          <internalNodes>
            0 -1 13 1.3424195349216461e-03</internalNodes>
          <leafValues>
            -1.1477697640657425e-01 3.7343555688858032e-01</leafValues></_>
        <_>
          <internalNodes>
            0 -1 214 -2.2201493266038597e-05</internalNodes>
          <leafValues>
            1.4795759320259094e-01 -3.0617672204971313e-01</leafValues></_>
        <_>
          <internalNodes>
            0 -1 109 -1.9403265789151192e-02</internalNodes>
          <leafValues>
            -6.6218543052673340e-01 9.1652199625968933e-02</leafValues></_>
        <_>
          <internalNodes>
            0 -1 122 1.5235958853736520e-03</internalNodes>
          <leafValues>
            8.9790754020214081e-02 -3.8129889965057373e-01</leafValues></_>
        <_>
          <internalNodes>
            0 -1 165 -7.4125637183897197e-05</internalNodes>
          <leafValues>
            2.6633584499359131e-01 -1.6439770162105560e-01</leafValues></_>
        <_>
          <internalNodes>
            0 -1 40 -1.6764920204877853e-02</internalNodes>
          <leafValues>
            -3.7960061430931091e-01 1.4050397276878357e-01</leafValues></_>
        <_>
          <internalNodes>
            0 -1 116 4.3802990694530308e-04</internalNodes>
          <leafValues>
            -1.1271145939826965e-01 4.9212425947189331e-01</leafValues></_>
        <_>
          <internalNodes>
            0 -1 100 8.0263998825103045e-04</internalNodes>
          <leafValues>
            1.3946628570556641e-01 -3.1055033206939697e-01</leafValues></_>
        <_>
          <internalNodes>
            0 -1 158 3.1623538234271109e-04</internalNodes>
          <leafValues>
            -1.5893542766571045e-01 3.0292260646820068e-01</leafValues></_>
        <_>
          <internalNodes>
            0 -1 156 5.9067383408546448e-03</internalNodes>
          <leafValues>
            6.7337997257709503e-02 -7.4565875530242920e-01</leafValues></_>
        <_>
          <internalNodes>
            0 -1 9 -4.5980261638760567e-03</internalNodes>
          <leafValues>
            3.9946919679641724e-01 -1.1734790354967117e-01</leafValues></_>
        <_>
          <internalNodes>
            0 -1 63 -4.5435293577611446e-03</internalNodes>
          <leafValues>
            -9.6055275201797485e-01 4.9081835895776749e-02</leafValues></_>
        <_>
          <internalNodes>
            0 -1 30 1.2379733845591545e-02</internalNodes>
          <leafValues>
            -1.0137738287448883e-01 4.9192717671394348e-01</leafValues></_>
        <_>
          <internalNodes>
            0 -1 16 5.7313710451126099e-02</internalNodes>
          <leafValues>
            7.2032362222671509e-02 -6.5598529577255249e-01</leafValues></_>
        <_>
          <internalNodes>
            0 -1 10 1.0865924414247274e-03</internalNodes>
          <leafValues>
            -1.3677544891834259e-01 3.5625481605529785e-01</leafValues></_>
        <_>
          <internalNodes>
            0 -1 209 1.9076638855040073e-03</internalNodes>
          <leafValues>
            -1.8946744501590729e-01 2.2472096979618073e-01</leafValues></_>
        <_>
          <internalNodes>
            0 -1 197 -1.3155830092728138e-03</internalNodes>
          <leafValues>
            2.6576206088066101e-01 -1.8634274601936340e-01</leafValues></_>
        <_>
          <internalNodes>
            0 -1 60 -4.3422417365945876e-04</internalNodes>
          <leafValues>
            -5.6596362590789795e-01 8.1452652812004089e-02</leafValues></_>
        <_>
          <internalNodes>
            0 -1 204 1.2835390865802765e-02</internalNodes>
          <leafValues>
            -1.4795939624309540e-01 3.0622792243957520e-01</leafValues></_>
        <_>
          <internalNodes>
            0 -1 12 -2.7645578607916832e-02</internalNodes>
          <leafValues>
            -6.2189626693725586e-01 7.3501832783222198e-02</leafValues></_>
        <_>
          <internalNodes>
            0 -1 232 -1.4427776914089918e-03</internalNodes>
          <leafValues>
            3.7475204467773438e-01 -1.2192542105913162e-01</leafValues></_>
        <_>
          <internalNodes>
            0 -1 52 1.3145853299647570e-03</internalNodes>
          <leafValues>
            7.1725711226463318e-02 -6.1788409948348999e-01</leafValues></_>
        <_>
          <internalNodes>
            0 -1 196 2.1936534903943539e-03</internalNodes>
          <leafValues>
            -2.7152937650680542e-01 1.6061322391033173e-01</leafValues></_>
        <_>
          <internalNodes>
            0 -1 88 -2.0196292549371719e-02</internalNodes>
          <leafValues>
            6.9543540477752686e-01 -8.3269499242305756e-02</leafValues></_>
        <_>
          <internalNodes>
            0 -1 27 -2.8753373771905899e-02</internalNodes>
          <leafValues>
            4.6504282951354980e-01 -8.0599285662174225e-02</leafValues></_>
        <_>
          <internalNodes>
            0 -1 25 8.4519188385456800e-04</internalNodes>
          <leafValues>
            -1.8998104333877563e-01 2.4147954583168030e-01</leafValues></_>
        <_>
          <internalNodes>
            0 -1 222 -5.6039774790406227e-03</internalNodes>
          <leafValues>
            3.5684722661972046e-01 -1.2326827645301819e-01</leafValues></_>
        <_>
          <internalNodes>
            0 -1 244 1.1841692030429840e-03</internalNodes>
          <leafValues>
            -1.1115687340497971e-01 3.4589853882789612e-01</leafValues></_>
        <_>
          <internalNodes>
            0 -1 211 1.1379002034664154e-01</internalNodes>
          <leafValues>
            -7.4064515531063080e-02 5.4974746704101562e-01</leafValues></_>
        <_>
          <internalNodes>
            0 -1 192 -2.2888951207278296e-05</internalNodes>
          <leafValues>
            1.9503948092460632e-01 -2.1269267797470093e-01</leafValues></_>
        <_>
          <internalNodes>
            0 -1 194 2.3907904978841543e-03</internalNodes>
          <leafValues>
            -8.5782140493392944e-02 4.8778554797172546e-01</leafValues></_>
        <_>
          <internalNodes>
            0 -1 150 3.0753030441701412e-03</internalNodes>
          <leafValues>
            6.2886953353881836e-02 -7.6003211736679077e-01</leafValues></_>
        <_>
          <internalNodes>
            0 -1 178 2.0705403294414282e-03</internalNodes>
          <leafValues>
            7.4231214821338654e-02 -4.8741319775581360e-01</leafValues></_>
        <_>
          <internalNodes>
            0 -1 103 -1.4336869353428483e-03</internalNodes>
          <leafValues>
            3.5957783460617065e-01 -1.2545512616634369e-01</leafValues></_>
        <_>
          <internalNodes>
            0 -1 169 -2.6491079479455948e-03</internalNodes>
          <leafValues>
            3.0568182468414307e-01 -1.5359599888324738e-01</leafValues></_>
        <_>
          <internalNodes>
            0 -1 148 1.0627723531797528e-03</internalNodes>
          <leafValues>
            -1.0153641551733017e-01 4.5473012328147888e-01</leafValues></_></weakClassifiers></_></stages>
  <features>
    <_>
      <rects>
        <_>
          0 6 8 16 -1.</_>
        <_>
          2 6 4 16 2.</_></rects>
      <tilted>0</tilted></_>
    <_>
      <rects>
        <_>
          0 6 4 17 -1.</_>
        <_>
          2 6 2 17 2.</_></rects>
      <tilted>0</tilted></_>
    <_>
      <rects>
        <_>
          0 7 6 15 -1.</_>
        <_>
          3 7 3 15 2.</_></rects>
      <tilted>0</tilted></_>
    <_>
      <rects>
        <_>
          0 7 6 17 -1.</_>
        <_>
          3 7 3 17 2.</_></rects>
      <tilted>0</tilted></_>
    <_>
      <rects>
        <_>
          0 10 3 2 -1.</_>
        <_>
          1 10 1 2 3.</_></rects>
      <tilted>0</tilted></_>
    <_>
      <rects>
        <_>
          0 10 4 7 -1.</_>
        <_>
          2 10 2 7 2.</_></rects>
      <tilted>0</tilted></_>
    <_>
      <rects>
        <_>
          0 10 4 20 -1.</_>
        <_>
          0 10 2 10 2.</_>
        <_>
          2 20 2 10 2.</_></rects>
      <tilted>0</tilted></_>
    <_>
      <rects>
        <_>
          0 11 3 2 -1.</_>
        <_>
          1 11 1 2 3.</_></rects>
      <tilted>0</tilted></_>
    <_>
      <rects>
        <_>
          0 11 2 10 -1.</_>
        <_>
          0 11 1 5 2.</_>
        <_>
          1 16 1 5 2.</_></rects>
      <tilted>0</tilted></_>
    <_>
      <rects>
        <_>
          0 11 4 11 -1.</_>
        <_>
          1 11 2 11 2.</_></rects>
      <tilted>0</tilted></_>
    <_>
      <rects>
        <_>
          0 14 3 3 -1.</_>
        <_>
          1 14 1 3 3.</_></rects>
      <tilted>0</tilted></_>
    <_>
      <rects>
        <_>
          0 19 6 1 -1.</_>
        <_>
          2 19 2 1 3.</_></rects>
      <tilted>0</tilted></_>
    <_>
      <rects>
        <_>
          1 13 18 3 -1.</_>
        <_>
          7 14 6 1 9.</_></rects>
      <tilted>0</tilted></_>
    <_>
      <rects>
        <_>
          2 6 3 1 -1.</_>
        <_>
          3 7 1 1 3.</_></rects>
      <tilted>1</tilted></_>
    <_>
      <rects>
        <_>
          2 6 4 1 -1.</_>
        <_>
          3 7 2 1 2.</_></rects>
      <tilted>1</tilted></_>
    <_>
      <rects>
        <_>
          2 8 6 4 -1.</_>
        <_>
          2 8 3 2 2.</_>
        <_>
          5 10 3 2 2.</_></rects>
      <tilted>0</tilted></_>
    <_>
      <rects>
        <_>
          2 10 21 12 -1.</_>
        <_>
          9 14 7 4 9.</_></rects>
      <tilted>0</tilted></_>
    <_>
      <rects>
        <_>
          3 7 6 2 -1.</_>
        <_>
          5 9 2 2 3.</_></rects>
      <tilted>1</tilted></_>
    <_>
      <rects>
        <_>
          3 14 12 4 -1.</_>
        <_>
          7 14 4 4 3.</_></rects>
      <tilted>0</tilted></_>
    <_>
      <rects>
        <_>
          3 17 4 3 -1.</_>
        <_>
          2 18 4 1 3.</_></rects>
      <tilted>1</tilted></_>
    <_>
      <rects>
        <_>
          3 17 5 3 -1.</_>
        <_>
          2 18 5 1 3.</_></rects>
      <tilted>1</tilted></_>
    <_>
      <rects>
        <_>
          3 18 6 3 -1.</_>
        <_>
          2 19 6 1 3.</_></rects>
      <tilted>1</tilted></_>
    <_>
      <rects>
        <_>
          4 0 10 4 -1.</_>
        <_>
          4 0 5 4 2.</_></rects>
      <tilted>1</tilted></_>
    <_>
      <rects>
        <_>
          4 10 23 9 -1.</_>
        <_>
          4 13 23 3 3.</_></rects>
      <tilted>0</tilted></_>
    <_>
      <rects>
        <_>
          4 12 12 1 -1.</_>
        <_>
          10 12 6 1 2.</_></rects>
      <tilted>0</tilted></_>
    <_>
      <rects>
        <_>
          4 13 4 10 -1.</_>
        <_>
          4 13 2 5 2.</_>
        <_>
          6 18 2 5 2.</_></rects>
      <tilted>0</tilted></_>
    <_>
      <rects>
        <_>
          4 16 7 4 -1.</_>
        <_>
          3 17 7 2 2.</_></rects>
      <tilted>1</tilted></_>
    <_>
      <rects>
        <_>
          4 17 9 4 -1.</_>
        <_>
          4 17 9 2 2.</_></rects>
      <tilted>1</tilted></_>
    <_>
      <rects>
        <_>
          5 6 4 5 -1.</_>
        <_>
          5 6 2 5 2.</_></rects>
      <tilted>1</tilted></_>
    <_>
      <rects>
        <_>
          6 0 12 8 -1.</_>
        <_>
          6 2 12 4 2.</_></rects>
      <tilted>0</tilted></_>
    <_>
      <rects>
        <_>
          6 2 12 4 -1.</_>
        <_>
          6 2 6 2 2.</_>
        <_>
          12 4 6 2 2.</_></rects>
      <tilted>0</tilted></_>
    <_>
      <rects>
        <_>
          6 4 6 4 -1.</_>
        <_>
          8 6 2 4 3.</_></rects>
      <tilted>1</tilted></_>
    <_>
      <rects>
        <_>
          6 9 4 6 -1.</_>
        <_>
          6 12 4 3 2.</_></rects>
      <tilted>0</tilted></_>
    <_>
      <rects>
        <_>
          6 12 16 5 -1.</_>
        <_>
          10 12 8 5 2.</_></rects>
      <tilted>0</tilted></_>
    <_>
      <rects>
        <_>
          6 13 3 4 -1.</_>
        <_>
          6 14 3 2 2.</_></rects>
      <tilted>0</tilted></_>
    <_>
      <rects>
        <_>
          6 16 8 6 -1.</_>
        <_>
          6 16 8 3 2.</_></rects>
      <tilted>1</tilted></_>
    <_>
      <rects>
        <_>
          6 17 6 6 -1.</_>
        <_>
          8 17 2 6 3.</_></rects>
      <tilted>0</tilted></_>
    <_>
      <rects>
        <_>
          6 22 10 8 -1.</_>
        <_>
          6 24 10 4 2.</_></rects>
      <tilted>0</tilted></_>
    <_>
      <rects>
        <_>
          7 2 6 6 -1.</_>
        <_>
          9 4 2 6 3.</_></rects>
      <tilted>1</tilted></_>
    <_>
      <rects>
        <_>
          7 4 11 8 -1.</_>
        <_>
          7 8 11 4 2.</_></rects>
      <tilted>0</tilted></_>
    <_>
      <rects>
        <_>
          7 11 15 9 -1.</_>
        <_>
          12 14 5 3 9.</_></rects>
      <tilted>0</tilted></_>
    <_>
      <rects>
        <_>
          7 12 6 6 -1.</_>
        <_>
          9 14 2 2 9.</_></rects>
      <tilted>0</tilted></_>
    <_>
      <rects>
        <_>
          7 12 19 12 -1.</_>
        <_>
          7 18 19 6 2.</_></rects>
      <tilted>0</tilted></_>
    <_>
      <rects>
        <_>
          7 14 10 3 -1.</_>
        <_>
          12 14 5 3 2.</_></rects>
      <tilted>0</tilted></_>
    <_>
      <rects>
        <_>
          7 15 1 2 -1.</_>
        <_>
          7 16 1 1 2.</_></rects>
      <tilted>0</tilted></_>
    <_>
      <rects>
        <_>
          8 0 6 7 -1.</_>
        <_>
          10 2 2 7 3.</_></rects>
      <tilted>1</tilted></_>
    <_>
      <rects>
        <_>
          8 2 6 8 -1.</_>
        <_>
          10 4 2 8 3.</_></rects>
      <tilted>1</tilted></_>
    <_>
      <rects>
        <_>
          8 6 9 5 -1.</_>
        <_>
          11 9 3 5 3.</_></rects>
      <tilted>1</tilted></_>
    <_>
      <rects>
        <_>
          8 8 12 10 -1.</_>
        <_>
          11 8 6 10 2.</_></rects>
      <tilted>0</tilted></_>
    <_>
      <rects>
        <_>
          8 8 15 12 -1.</_>
        <_>
          13 12 5 4 9.</_></rects>
      <tilted>0</tilted></_>
    <_>
      <rects>
        <_>
          8 10 15 12 -1.</_>
        <_>
          13 14 5 4 9.</_></rects>
      <tilted>0</tilted></_>
    <_>
      <rects>
        <_>
          8 11 14 6 -1.</_>
        <_>
          8 11 7 3 2.</_>
        <_>
          15 14 7 3 2.</_></rects>
      <tilted>0</tilted></_>
    <_>
      <rects>
        <_>
          8 12 4 3 -1.</_>
        <_>
          8 13 4 1 3.</_></rects>
      <tilted>0</tilted></_>
    <_>
      <rects>
        <_>
          8 14 3 7 -1.</_>
        <_>
          9 14 1 7 3.</_></rects>
      <tilted>0</tilted></_>
    <_>
      <rects>
        <_>
          8 14 18 2 -1.</_>
        <_>
          8 15 18 1 2.</_></rects>
      <tilted>0</tilted></_>
    <_>
      <rects>
        <_>
          8 15 3 3 -1.</_>
        <_>
          9 15 1 3 3.</_></rects>
      <tilted>0</tilted></_>
    <_>
      <rects>
        <_>
          8 20 5 4 -1.</_>
        <_>
          7 21 5 2 2.</_></rects>
      <tilted>1</tilted></_>
    <_>
      <rects>
        <_>
          9 7 5 10 -1.</_>
        <_>
          9 12 5 5 2.</_></rects>
      <tilted>0</tilted></_>
    <_>
      <rects>
        <_>
          9 8 15 12 -1.</_>
        <_>
          14 12 5 4 9.</_></rects>
      <tilted>0</tilted></_>
    <_>
      <rects>
        <_>
          9 9 11 9 -1.</_>
        <_>
          9 12 11 3 3.</_></rects>
      <tilted>0</tilted></_>
    <_>
      <rects>
        <_>
          9 11 1 4 -1.</_>
        <_>
          9 12 1 2 2.</_></rects>
      <tilted>0</tilted></_>
    <_>
      <rects>
        <_>
          9 11 1 6 -1.</_>
        <_>
          9 13 1 2 3.</_></rects>
      <tilted>0</tilted></_>
    <_>
      <rects>
        <_>
          9 12 12 6 -1.</_>
        <_>
          13 14 4 2 9.</_></rects>
      <tilted>0</tilted></_>
    <_>
      <rects>
        <_>
          9 14 2 6 -1.</_>
        <_>
          9 16 2 2 3.</_></rects>
      <tilted>0</tilted></_>
    <_>
      <rects>
        <_>
          9 15 15 3 -1.</_>
        <_>
          14 15 5 3 3.</_></rects>
      <tilted>0</tilted></_>
    <_>
      <rects>
        <_>
          9 15 21 15 -1.</_>
        <_>
          9 20 21 5 3.</_></rects>
      <tilted>0</tilted></_>
    <_>
      <rects>
        <_>
          10 0 4 10 -1.</_>
        <_>
          10 0 2 10 2.</_></rects>
      <tilted>1</tilted></_>
    <_>
      <rects>
        <_>
          10 1 4 9 -1.</_>
        <_>
          11 2 2 9 2.</_></rects>
      <tilted>1</tilted></_>
    <_>
      <rects>
        <_>
          10 2 2 10 -1.</_>
        <_>
          10 2 1 10 2.</_></rects>
      <tilted>1</tilted></_>
    <_>
      <rects>
        <_>
          10 10 6 3 -1.</_>
        <_>
          12 12 2 3 3.</_></rects>
      <tilted>1</tilted></_>
    <_>
      <rects>
        <_>
          10 12 6 1 -1.</_>
        <_>
          12 14 2 1 3.</_></rects>
      <tilted>1</tilted></_>
    <_>
      <rects>
        <_>
          10 13 12 6 -1.</_>
        <_>
          14 15 4 2 9.</_></rects>
      <tilted>0</tilted></_>
    <_>
      <rects>
        <_>
          10 13 15 3 -1.</_>
        <_>
          15 14 5 1 9.</_></rects>
      <tilted>0</tilted></_>
    <_>
      <rects>
        <_>
          10 14 1 2 -1.</_>
        <_>
          10 15 1 1 2.</_></rects>
      <tilted>0</tilted></_>
    <_>
      <rects>
        <_>
          10 14 8 1 -1.</_>
        <_>
          14 14 4 1 2.</_></rects>
      <tilted>0</tilted></_>
    <_>
      <rects>
        <_>
          10 16 6 1 -1.</_>
        <_>
          13 16 3 1 2.</_></rects>
      <tilted>0</tilted></_>
    <_>
      <rects>
        <_>
          10 16 12 2 -1.</_>
        <_>
          13 16 6 2 2.</_></rects>
      <tilted>0</tilted></_>
    <_>
      <rects>
        <_>
          10 16 8 2 -1.</_>
        <_>
          14 16 4 2 2.</_></rects>
      <tilted>0</tilted></_>
    <_>
      <rects>
        <_>
          10 22 12 8 -1.</_>
        <_>
          10 24 12 4 2.</_></rects>
      <tilted>0</tilted></_>
    <_>
      <rects>
        <_>
          11 1 2 10 -1.</_>
        <_>
          11 1 1 10 2.</_></rects>
      <tilted>1</tilted></_>
    <_>
      <rects>
        <_>
          11 4 8 7 -1.</_>
        <_>
          13 6 4 7 2.</_></rects>
      <tilted>1</tilted></_>
    <_>
      <rects>
        <_>
          11 7 8 3 -1.</_>
        <_>
          11 7 4 3 2.</_></rects>
      <tilted>1</tilted></_>
    <_>
      <rects>
        <_>
          11 10 12 9 -1.</_>
        <_>
          15 13 4 3 9.</_></rects>
      <tilted>0</tilted></_>
    <_>
      <rects>
        <_>
          11 12 1 2 -1.</_>
        <_>
          11 13 1 1 2.</_></rects>
      <tilted>0</tilted></_>
    <_>
      <rects>
        <_>
          11 12 1 3 -1.</_>
        <_>
          10 13 1 1 3.</_></rects>
      <tilted>1</tilted></_>
    <_>
      <rects>
        <_>
          11 12 3 6 -1.</_>
        <_>
          11 12 3 3 2.</_></rects>
      <tilted>1</tilted></_>
    <_>
      <rects>
        <_>
          11 12 6 4 -1.</_>
        <_>
          11 12 6 2 2.</_></rects>
      <tilted>1</tilted></_>
    <_>
      <rects>
        <_>
          11 13 6 3 -1.</_>
        <_>
          13 15 2 3 3.</_></rects>
      <tilted>1</tilted></_>
    <_>
      <rects>
        <_>
          11 14 12 6 -1.</_>
        <_>
          15 16 4 2 9.</_></rects>
      <tilted>0</tilted></_>
    <_>
      <rects>
        <_>
          11 16 6 1 -1.</_>
        <_>
          14 16 3 1 2.</_></rects>
      <tilted>0</tilted></_>
    <_>
      <rects>
        <_>
          11 16 6 2 -1.</_>
        <_>
          14 16 3 2 2.</_></rects>
      <tilted>0</tilted></_>
    <_>
      <rects>
        <_>
          12 0 2 12 -1.</_>
        <_>
          12 0 1 12 2.</_></rects>
      <tilted>1</tilted></_>
    <_>
      <rects>
        <_>
          12 1 12 9 -1.</_>
        <_>
          12 4 12 3 3.</_></rects>
      <tilted>0</tilted></_>
    <_>
      <rects>
        <_>
          12 4 18 14 -1.</_>
        <_>
          21 4 9 14 2.</_></rects>
      <tilted>0</tilted></_>
    <_>
      <rects>
        <_>
          12 9 9 2 -1.</_>
        <_>
          15 12 3 2 3.</_></rects>
      <tilted>1</tilted></_>
    <_>
      <rects>
        <_>
          12 10 4 4 -1.</_>
        <_>
          12 10 4 2 2.</_></rects>
      <tilted>1</tilted></_>
    <_>
      <rects>
        <_>
          12 10 15 5 -1.</_>
        <_>
          17 10 5 5 3.</_></rects>
      <tilted>0</tilted></_>
    <_>
      <rects>
        <_>
          12 10 7 8 -1.</_>
        <_>
          12 12 7 4 2.</_></rects>
      <tilted>0</tilted></_>
    <_>
      <rects>
        <_>
          12 11 2 7 -1.</_>
        <_>
          13 11 1 7 2.</_></rects>
      <tilted>0</tilted></_>
    <_>
      <rects>
        <_>
          12 11 5 6 -1.</_>
        <_>
          12 11 5 3 2.</_></rects>
      <tilted>1</tilted></_>
    <_>
      <rects>
        <_>
          12 12 6 6 -1.</_>
        <_>
          14 14 2 2 9.</_></rects>
      <tilted>0</tilted></_>
    <_>
      <rects>
        <_>
          12 12 6 5 -1.</_>
        <_>
          14 12 2 5 3.</_></rects>
      <tilted>0</tilted></_>
    <_>
      <rects>
        <_>
          12 13 12 2 -1.</_>
        <_>
          16 13 4 2 3.</_></rects>
      <tilted>0</tilted></_>
    <_>
      <rects>
        <_>
          12 13 8 4 -1.</_>
        <_>
          12 13 4 2 2.</_>
        <_>
          16 15 4 2 2.</_></rects>
      <tilted>0</tilted></_>
    <_>
      <rects>
        <_>
          12 14 12 2 -1.</_>
        <_>
          15 14 6 2 2.</_></rects>
      <tilted>0</tilted></_>
    <_>
      <rects>
        <_>
          12 15 3 9 -1.</_>
        <_>
          13 15 1 9 3.</_></rects>
      <tilted>0</tilted></_>
    <_>
      <rects>
        <_>
          12 18 3 4 -1.</_>
        <_>
          13 18 1 4 3.</_></rects>
      <tilted>0</tilted></_>
    <_>
      <rects>
        <_>
          12 22 9 8 -1.</_>
        <_>
          12 24 9 4 2.</_></rects>
      <tilted>0</tilted></_>
    <_>
      <rects>
        <_>
          13 2 6 6 -1.</_>
        <_>
          13 4 6 2 3.</_></rects>
      <tilted>0</tilted></_>
    <_>
      <rects>
        <_>
          13 5 6 16 -1.</_>
        <_>
          13 9 6 8 2.</_></rects>
      <tilted>0</tilted></_>
    <_>
      <rects>
        <_>
          13 7 9 6 -1.</_>
        <_>
          11 9 9 2 3.</_></rects>
      <tilted>1</tilted></_>
    <_>
      <rects>
        <_>
          13 8 6 12 -1.</_>
        <_>
          13 12 6 4 3.</_></rects>
      <tilted>0</tilted></_>
    <_>
      <rects>
        <_>
          13 8 11 4 -1.</_>
        <_>
          13 8 11 2 2.</_></rects>
      <tilted>1</tilted></_>
    <_>
      <rects>
        <_>
          13 13 6 2 -1.</_>
        <_>
          15 15 2 2 3.</_></rects>
      <tilted>1</tilted></_>
    <_>
      <rects>
        <_>
          13 14 4 1 -1.</_>
        <_>
          15 14 2 1 2.</_></rects>
      <tilted>0</tilted></_>
    <_>
      <rects>
        <_>
          13 15 6 3 -1.</_>
        <_>
          16 15 3 3 2.</_></rects>
      <tilted>0</tilted></_>
    <_>
      <rects>
        <_>
          13 16 1 4 -1.</_>
        <_>
          13 18 1 2 2.</_></rects>
      <tilted>0</tilted></_>
    <_>
      <rects>
        <_>
          13 18 3 3 -1.</_>
        <_>
          14 18 1 3 3.</_></rects>
      <tilted>0</tilted></_>
    <_>
      <rects>
        <_>
          13 27 17 3 -1.</_>
        <_>
          13 28 17 1 3.</_></rects>
      <tilted>0</tilted></_>
    <_>
      <rects>
        <_>
          14 0 16 28 -1.</_>
        <_>
          18 0 8 28 2.</_></rects>
      <tilted>0</tilted></_>
    <_>
      <rects>
        <_>
          14 0 5 4 -1.</_>
        <_>
          14 1 5 2 2.</_></rects>
      <tilted>0</tilted></_>
    <_>
      <rects>
        <_>
          14 4 4 3 -1.</_>
        <_>
          14 5 4 1 3.</_></rects>
      <tilted>0</tilted></_>
    <_>
      <rects>
        <_>
          14 8 8 5 -1.</_>
        <_>
          16 10 4 5 2.</_></rects>
      <tilted>1</tilted></_>
    <_>
      <rects>
        <_>
          14 8 6 2 -1.</_>
        <_>
          14 8 3 2 2.</_></rects>
      <tilted>1</tilted></_>
    <_>
      <rects>
        <_>
          14 10 3 9 -1.</_>
        <_>
          15 13 1 3 9.</_></rects>
      <tilted>0</tilted></_>
    <_>
      <rects>
        <_>
          14 10 4 9 -1.</_>
        <_>
          14 13 4 3 3.</_></rects>
      <tilted>0</tilted></_>
    <_>
      <rects>
        <_>
          14 11 8 3 -1.</_>
        <_>
          16 13 4 3 2.</_></rects>
      <tilted>1</tilted></_>
    <_>
      <rects>
        <_>
          14 11 9 4 -1.</_>
        <_>
          17 14 3 4 3.</_></rects>
      <tilted>1</tilted></_>
    <_>
      <rects>
        <_>
          14 12 4 8 -1.</_>
        <_>
          15 12 2 8 2.</_></rects>
      <tilted>0</tilted></_>
    <_>
      <rects>
        <_>
          14 12 4 1 -1.</_>
        <_>
          14 12 2 1 2.</_></rects>
      <tilted>1</tilted></_>
    <_>
      <rects>
        <_>
          14 12 2 6 -1.</_>
        <_>
          14 15 2 3 2.</_></rects>
      <tilted>0</tilted></_>
    <_>
      <rects>
        <_>
          14 13 2 3 -1.</_>
        <_>
          15 13 1 3 2.</_></rects>
      <tilted>0</tilted></_>
    <_>
      <rects>
        <_>
          14 13 2 4 -1.</_>
        <_>
          15 13 1 4 2.</_></rects>
      <tilted>0</tilted></_>
    <_>
      <rects>
        <_>
          14 13 3 6 -1.</_>
        <_>
          15 13 1 6 3.</_></rects>
      <tilted>0</tilted></_>
    <_>
      <rects>
        <_>
          14 13 2 4 -1.</_>
        <_>
          14 15 2 2 2.</_></rects>
      <tilted>0</tilted></_>
    <_>
      <rects>
        <_>
          14 14 4 3 -1.</_>
        <_>
          15 14 2 3 2.</_></rects>
      <tilted>0</tilted></_>
    <_>
      <rects>
        <_>
          14 14 4 4 -1.</_>
        <_>
          15 14 2 4 2.</_></rects>
      <tilted>0</tilted></_>
    <_>
      <rects>
        <_>
          14 14 2 10 -1.</_>
        <_>
          14 19 2 5 2.</_></rects>
      <tilted>0</tilted></_>
    <_>
      <rects>
        <_>
          14 15 3 2 -1.</_>
        <_>
          15 15 1 2 3.</_></rects>
      <tilted>0</tilted></_>
    <_>
      <rects>
        <_>
          14 15 4 2 -1.</_>
        <_>
          15 15 2 2 2.</_></rects>
      <tilted>0</tilted></_>
    <_>
      <rects>
        <_>
          14 15 4 4 -1.</_>
        <_>
          16 15 2 4 2.</_></rects>
      <tilted>0</tilted></_>
    <_>
      <rects>
        <_>
          14 15 3 3 -1.</_>
        <_>
          14 16 3 1 3.</_></rects>
      <tilted>0</tilted></_>
    <_>
      <rects>
        <_>
          14 16 4 1 -1.</_>
        <_>
          15 16 2 1 2.</_></rects>
      <tilted>0</tilted></_>
    <_>
      <rects>
        <_>
          14 16 4 8 -1.</_>
        <_>
          14 20 4 4 2.</_></rects>
      <tilted>0</tilted></_>
    <_>
      <rects>
        <_>
          14 17 9 3 -1.</_>
        <_>
          17 18 3 1 9.</_></rects>
      <tilted>0</tilted></_>
    <_>
      <rects>
        <_>
          14 19 3 4 -1.</_>
        <_>
          15 19 1 4 3.</_></rects>
      <tilted>0</tilted></_>
    <_>
      <rects>
        <_>
          15 0 15 30 -1.</_>
        <_>
          20 10 5 10 9.</_></rects>
      <tilted>0</tilted></_>
    <_>
      <rects>
        <_>
          15 2 2 3 -1.</_>
        <_>
          15 3 2 1 3.</_></rects>
      <tilted>0</tilted></_>
    <_>
      <rects>
        <_>
          15 9 2 4 -1.</_>
        <_>
          15 10 2 2 2.</_></rects>
      <tilted>0</tilted></_>
    <_>
      <rects>
        <_>
          15 10 9 9 -1.</_>
        <_>
          15 13 9 3 3.</_></rects>
      <tilted>0</tilted></_>
    <_>
      <rects>
        <_>
          15 11 3 14 -1.</_>
        <_>
          16 11 1 14 3.</_></rects>
      <tilted>0</tilted></_>
    <_>
      <rects>
        <_>
          15 11 5 3 -1.</_>
        <_>
          14 12 5 1 3.</_></rects>
      <tilted>1</tilted></_>
    <_>
      <rects>
        <_>
          15 12 3 9 -1.</_>
        <_>
          16 12 1 9 3.</_></rects>
      <tilted>0</tilted></_>
    <_>
      <rects>
        <_>
          15 12 4 3 -1.</_>
        <_>
          15 12 2 3 2.</_></rects>
      <tilted>1</tilted></_>
    <_>
      <rects>
        <_>
          15 13 1 4 -1.</_>
        <_>
          15 15 1 2 2.</_></rects>
      <tilted>0</tilted></_>
    <_>
      <rects>
        <_>
          15 13 3 6 -1.</_>
        <_>
          16 13 1 6 3.</_></rects>
      <tilted>0</tilted></_>
    <_>
      <rects>
        <_>
          15 13 12 6 -1.</_>
        <_>
          15 16 12 3 2.</_></rects>
      <tilted>0</tilted></_>
    <_>
      <rects>
        <_>
          15 14 2 1 -1.</_>
        <_>
          15 14 1 1 2.</_></rects>
      <tilted>1</tilted></_>
    <_>
      <rects>
        <_>
          15 14 2 4 -1.</_>
        <_>
          15 14 1 2 2.</_>
        <_>
          16 16 1 2 2.</_></rects>
      <tilted>0</tilted></_>
    <_>
      <rects>
        <_>
          15 14 12 6 -1.</_>
        <_>
          15 17 12 3 2.</_></rects>
      <tilted>0</tilted></_>
    <_>
      <rects>
        <_>
          15 15 1 2 -1.</_>
        <_>
          15 16 1 1 2.</_></rects>
      <tilted>0</tilted></_>
    <_>
      <rects>
        <_>
          15 15 3 1 -1.</_>
        <_>
          16 15 1 1 3.</_></rects>
      <tilted>0</tilted></_>
    <_>
      <rects>
        <_>
          15 15 1 3 -1.</_>
        <_>
          15 16 1 1 3.</_></rects>
      <tilted>0</tilted></_>
    <_>
      <rects>
        <_>
          15 15 3 2 -1.</_>
        <_>
          16 15 1 2 3.</_></rects>
      <tilted>0</tilted></_>
    <_>
      <rects>
        <_>
          15 16 3 1 -1.</_>
        <_>
          16 16 1 1 3.</_></rects>
      <tilted>0</tilted></_>
    <_>
      <rects>
        <_>
          15 16 4 1 -1.</_>
        <_>
          16 16 2 1 2.</_></rects>
      <tilted>0</tilted></_>
    <_>
      <rects>
        <_>
          15 17 1 2 -1.</_>
        <_>
          15 18 1 1 2.</_></rects>
      <tilted>0</tilted></_>
    <_>
      <rects>
        <_>
          15 20 2 10 -1.</_>
        <_>
          15 25 2 5 2.</_></rects>
      <tilted>0</tilted></_>
    <_>
      <rects>
        <_>
          16 0 12 12 -1.</_>
        <_>
          20 4 4 12 3.</_></rects>
      <tilted>1</tilted></_>
    <_>
      <rects>
        <_>
          16 8 10 3 -1.</_>
        <_>
          16 8 5 3 2.</_></rects>
      <tilted>1</tilted></_>
    <_>
      <rects>
        <_>
          16 8 7 10 -1.</_>
        <_>
          16 8 7 5 2.</_></rects>
      <tilted>1</tilted></_>
    <_>
      <rects>
        <_>
          16 11 12 11 -1.</_>
        <_>
          19 11 6 11 2.</_></rects>
      <tilted>0</tilted></_>
    <_>
      <rects>
        <_>
          16 14 1 4 -1.</_>
        <_>
          16 15 1 2 2.</_></rects>
      <tilted>0</tilted></_>
    <_>
      <rects>
        <_>
          16 14 2 2 -1.</_>
        <_>
          16 14 1 1 2.</_>
        <_>
          17 15 1 1 2.</_></rects>
      <tilted>0</tilted></_>
    <_>
      <rects>
        <_>
          16 15 2 3 -1.</_>
        <_>
          17 15 1 3 2.</_></rects>
      <tilted>0</tilted></_>
    <_>
      <rects>
        <_>
          16 15 3 4 -1.</_>
        <_>
          16 16 3 2 2.</_></rects>
      <tilted>0</tilted></_>
    <_>
      <rects>
        <_>
          16 16 8 3 -1.</_>
        <_>
          18 16 4 3 2.</_></rects>
      <tilted>0</tilted></_>
    <_>
      <rects>
        <_>
          17 0 1 28 -1.</_>
        <_>
          17 14 1 14 2.</_></rects>
      <tilted>0</tilted></_>
    <_>
      <rects>
        <_>
          17 9 2 14 -1.</_>
        <_>
          18 9 1 14 2.</_></rects>
      <tilted>0</tilted></_>
    <_>
      <rects>
        <_>
          17 9 5 10 -1.</_>
        <_>
          17 9 5 5 2.</_></rects>
      <tilted>1</tilted></_>
    <_>
      <rects>
        <_>
          17 11 4 3 -1.</_>
        <_>
          17 11 2 3 2.</_></rects>
      <tilted>1</tilted></_>
    <_>
      <rects>
        <_>
          17 11 7 4 -1.</_>
        <_>
          17 13 7 2 2.</_></rects>
      <tilted>0</tilted></_>
    <_>
      <rects>
        <_>
          17 15 2 1 -1.</_>
        <_>
          17 15 1 1 2.</_></rects>
      <tilted>1</tilted></_>
    <_>
      <rects>
        <_>
          17 15 12 3 -1.</_>
        <_>
          21 15 4 3 3.</_></rects>
      <tilted>0</tilted></_>
    <_>
      <rects>
        <_>
          17 16 8 5 -1.</_>
        <_>
          19 16 4 5 2.</_></rects>
      <tilted>0</tilted></_>
    <_>
      <rects>
        <_>
          17 16 6 6 -1.</_>
        <_>
          17 16 3 3 2.</_>
        <_>
          20 19 3 3 2.</_></rects>
      <tilted>0</tilted></_>
    <_>
      <rects>
        <_>
          17 19 4 3 -1.</_>
        <_>
          18 19 2 3 2.</_></rects>
      <tilted>0</tilted></_>
    <_>
      <rects>
        <_>
          18 12 5 4 -1.</_>
        <_>
          18 14 5 2 2.</_></rects>
      <tilted>0</tilted></_>
    <_>
      <rects>
        <_>
          18 13 4 11 -1.</_>
        <_>
          19 13 2 11 2.</_></rects>
      <tilted>0</tilted></_>
    <_>
      <rects>
        <_>
          18 24 5 6 -1.</_>
        <_>
          18 26 5 2 3.</_></rects>
      <tilted>0</tilted></_>
    <_>
      <rects>
        <_>
          19 11 3 5 -1.</_>
        <_>
          20 11 1 5 3.</_></rects>
      <tilted>0</tilted></_>
    <_>
      <rects>
        <_>
          19 13 5 6 -1.</_>
        <_>
          19 13 5 3 2.</_></rects>
      <tilted>1</tilted></_>
    <_>
      <rects>
        <_>
          19 14 2 2 -1.</_>
        <_>
          19 14 1 1 2.</_>
        <_>
          20 15 1 1 2.</_></rects>
      <tilted>0</tilted></_>
    <_>
      <rects>
        <_>
          19 16 4 3 -1.</_>
        <_>
          20 17 2 3 2.</_></rects>
      <tilted>1</tilted></_>
    <_>
      <rects>
        <_>
          20 0 3 3 -1.</_>
        <_>
          20 1 3 1 3.</_></rects>
      <tilted>0</tilted></_>
    <_>
      <rects>
        <_>
          20 10 1 8 -1.</_>
        <_>
          20 10 1 4 2.</_></rects>
      <tilted>1</tilted></_>
    <_>
      <rects>
        <_>
          20 10 3 9 -1.</_>
        <_>
          17 13 3 3 3.</_></rects>
      <tilted>1</tilted></_>
    <_>
      <rects>
        <_>
          20 11 8 7 -1.</_>
        <_>
          22 11 4 7 2.</_></rects>
      <tilted>0</tilted></_>
    <_>
      <rects>
        <_>
          20 13 5 2 -1.</_>
        <_>
          20 14 5 1 2.</_></rects>
      <tilted>0</tilted></_>
    <_>
      <rects>
        <_>
          20 13 5 6 -1.</_>
        <_>
          20 16 5 3 2.</_></rects>
      <tilted>0</tilted></_>
    <_>
      <rects>
        <_>
          20 14 6 3 -1.</_>
        <_>
          22 16 2 3 3.</_></rects>
      <tilted>1</tilted></_>
    <_>
      <rects>
        <_>
          20 14 6 4 -1.</_>
        <_>
          22 16 2 4 3.</_></rects>
      <tilted>1</tilted></_>
    <_>
      <rects>
        <_>
          20 15 3 3 -1.</_>
        <_>
          21 16 1 3 3.</_></rects>
      <tilted>1</tilted></_>
    <_>
      <rects>
        <_>
          20 15 8 5 -1.</_>
        <_>
          24 15 4 5 2.</_></rects>
      <tilted>0</tilted></_>
    <_>
      <rects>
        <_>
          20 17 10 12 -1.</_>
        <_>
          20 17 5 6 2.</_>
        <_>
          25 23 5 6 2.</_></rects>
      <tilted>0</tilted></_>
    <_>
      <rects>
        <_>
          20 21 7 8 -1.</_>
        <_>
          20 23 7 4 2.</_></rects>
      <tilted>0</tilted></_>
    <_>
      <rects>
        <_>
          21 9 1 9 -1.</_>
        <_>
          18 12 1 3 3.</_></rects>
      <tilted>1</tilted></_>
    <_>
      <rects>
        <_>
          21 10 2 2 -1.</_>
        <_>
          21 10 1 2 2.</_></rects>
      <tilted>1</tilted></_>
    <_>
      <rects>
        <_>
          21 12 2 4 -1.</_>
        <_>
          20 13 2 2 2.</_></rects>
      <tilted>1</tilted></_>
    <_>
      <rects>
        <_>
          21 12 4 6 -1.</_>
        <_>
          23 12 2 6 2.</_></rects>
      <tilted>0</tilted></_>
    <_>
      <rects>
        <_>
          21 13 4 4 -1.</_>
        <_>
          21 14 4 2 2.</_></rects>
      <tilted>0</tilted></_>
    <_>
      <rects>
        <_>
          22 1 5 28 -1.</_>
        <_>
          22 8 5 14 2.</_></rects>
      <tilted>0</tilted></_>
    <_>
      <rects>
        <_>
          22 10 1 9 -1.</_>
        <_>
          19 13 1 3 3.</_></rects>
      <tilted>1</tilted></_>
    <_>
      <rects>
        <_>
          22 12 1 4 -1.</_>
        <_>
          21 13 1 2 2.</_></rects>
      <tilted>1</tilted></_>
    <_>
      <rects>
        <_>
          22 13 1 4 -1.</_>
        <_>
          21 14 1 2 2.</_></rects>
      <tilted>1</tilted></_>
    <_>
      <rects>
        <_>
          22 13 3 6 -1.</_>
        <_>
          23 15 1 2 9.</_></rects>
      <tilted>0</tilted></_>
    <_>
      <rects>
        <_>
          22 13 8 13 -1.</_>
        <_>
          24 13 4 13 2.</_></rects>
      <tilted>0</tilted></_>
    <_>
      <rects>
        <_>
          22 15 3 4 -1.</_>
        <_>
          22 15 3 2 2.</_></rects>
      <tilted>1</tilted></_>
    <_>
      <rects>
        <_>
          23 1 6 4 -1.</_>
        <_>
          22 2 6 2 2.</_></rects>
      <tilted>1</tilted></_>
    <_>
      <rects>
        <_>
          23 2 7 4 -1.</_>
        <_>
          23 2 7 2 2.</_></rects>
      <tilted>1</tilted></_>
    <_>
      <rects>
        <_>
          23 2 7 6 -1.</_>
        <_>
          21 4 7 2 3.</_></rects>
      <tilted>1</tilted></_>
    <_>
      <rects>
        <_>
          23 15 2 6 -1.</_>
        <_>
          21 17 2 2 3.</_></rects>
      <tilted>1</tilted></_>
    <_>
      <rects>
        <_>
          23 19 6 8 -1.</_>
        <_>
          23 19 3 4 2.</_>
        <_>
          26 23 3 4 2.</_></rects>
      <tilted>0</tilted></_>
    <_>
      <rects>
        <_>
          24 0 6 26 -1.</_>
        <_>
          27 0 3 26 2.</_></rects>
      <tilted>0</tilted></_>
    <_>
      <rects>
        <_>
          24 1 5 28 -1.</_>
        <_>
          24 8 5 14 2.</_></rects>
      <tilted>0</tilted></_>
    <_>
      <rects>
        <_>
          24 2 1 28 -1.</_>
        <_>
          24 9 1 14 2.</_></rects>
      <tilted>0</tilted></_>
    <_>
      <rects>
        <_>
          24 3 6 21 -1.</_>
        <_>
          27 3 3 21 2.</_></rects>
      <tilted>0</tilted></_>
    <_>
      <rects>
        <_>
          24 11 6 18 -1.</_>
        <_>
          24 11 3 9 2.</_>
        <_>
          27 20 3 9 2.</_></rects>
      <tilted>0</tilted></_>
    <_>
      <rects>
        <_>
          24 12 4 6 -1.</_>
        <_>
          26 12 2 6 2.</_></rects>
      <tilted>0</tilted></_>
    <_>
      <rects>
        <_>
          24 21 4 4 -1.</_>
        <_>
          25 22 2 4 2.</_></rects>
      <tilted>1</tilted></_>
    <_>
      <rects>
        <_>
          25 3 1 6 -1.</_>
        <_>
          25 5 1 2 3.</_></rects>
      <tilted>0</tilted></_>
    <_>
      <rects>
        <_>
          25 5 4 10 -1.</_>
        <_>
          25 5 2 5 2.</_>
        <_>
          27 10 2 5 2.</_></rects>
      <tilted>0</tilted></_>
    <_>
      <rects>
        <_>
          25 8 4 3 -1.</_>
        <_>
          26 8 2 3 2.</_></rects>
      <tilted>0</tilted></_>
    <_>
      <rects>
        <_>
          25 17 4 10 -1.</_>
        <_>
          25 17 2 5 2.</_>
        <_>
          27 22 2 5 2.</_></rects>
      <tilted>0</tilted></_>
    <_>
      <rects>
        <_>
          25 20 1 10 -1.</_>
        <_>
          25 25 1 5 2.</_></rects>
      <tilted>0</tilted></_>
    <_>
      <rects>
        <_>
          26 6 4 18 -1.</_>
        <_>
          28 6 2 18 2.</_></rects>
      <tilted>0</tilted></_>
    <_>
      <rects>
        <_>
          26 10 4 20 -1.</_>
        <_>
          26 10 2 10 2.</_>
        <_>
          28 20 2 10 2.</_></rects>
      <tilted>0</tilted></_>
    <_>
      <rects>
        <_>
          26 18 4 4 -1.</_>
        <_>
          27 19 2 4 2.</_></rects>
      <tilted>1</tilted></_>
    <_>
      <rects>
        <_>
          26 19 4 6 -1.</_>
        <_>
          27 20 2 6 2.</_></rects>
      <tilted>1</tilted></_>
    <_>
      <rects>
        <_>
          26 21 4 5 -1.</_>
        <_>
          27 22 2 5 2.</_></rects>
      <tilted>1</tilted></_>
    <_>
      <rects>
        <_>
          27 7 3 3 -1.</_>
        <_>
          28 8 1 1 9.</_></rects>
      <tilted>0</tilted></_>
    <_>
      <rects>
        <_>
          27 13 1 8 -1.</_>
        <_>
          27 13 1 4 2.</_></rects>
      <tilted>1</tilted></_>
    <_>
      <rects>
        <_>
          27 18 3 9 -1.</_>
        <_>
          28 19 1 9 3.</_></rects>
      <tilted>1</tilted></_>
    <_>
      <rects>
        <_>
          28 8 2 20 -1.</_>
        <_>
          29 8 1 20 2.</_></rects>
      <tilted>0</tilted></_>
    <_>
      <rects>
        <_>
          29 6 1 3 -1.</_>
        <_>
          28 7 1 1 3.</_></rects>
      <tilted>1</tilted></_></features></cascade>
</opencv_storage>
